{"layers": [{"weights": [[-0.000418802050689066, 0.00011670437584040489, -0.0002893431889064972, -7.638069323518633e-05, 0.000578577872656495, -0.0009279811726720525, 0.0004684503571891498, 0.0003860999412326155, -0.0006115514813811772, 0.00011670964671159767, -0.00029020822423430156, 0.0003602310146126883, -0.00023984442509892992, -6.563368509883404e-05, -3.8659833096108596e-05, -0.00047789652951679175, 0.0003528603080192617, 0.0006196416169946756, -0.0005927527838411762, 0.0002488223457861306, -0.0010119333669226028, -0.00020634912694534832, 8.093544306244369e-05, -3.560569161442354e-05, 0.0001253889034525142, -7.728435024438604e-06, 0.0004827088629865803, 2.350536666176219e-05, 0.000207766203638505, 0.0004774056878904229, -0.000706721149892641, 0.0004920327897347609, -0.00037346856493553093, -0.00033133011465256957, -0.0007409500986841974, -3.809963687971218e-05, 0.0006364491307756432, -8.560068843680838e-05, -0.0001789119673845771, -0.00028169255343616484, 0.00022453479252511314, -0.000508606117912626, -0.00033115627008249005, -0.00031553454426450317, 0.00025029164648152427, -5.617130936549017e-05, -0.00042868233096865087, -0.0001408435907482727, -0.0005904318108963522, -0.00037760824051556757, -0.000740783590041795, -0.0003863997801589429, 0.0009819162226189142, 0.00023071336644786002, 0.00034405798974396955, 0.000354537197549939, -1.8198660048050604e-06, 7.327474812271428e-05, -0.0005725287141615644, 6.50141319676372e-05, -0.00024129877348389676, 0.000595461492012771, 0.00046541867097002086, -0.00031582890560151065, 0.0005969202822647971, -0.00038010848131372964, -4.267745150563987e-05, -0.0007785565039193057, -0.0003784111963770753, -0.00014363239833694287, -0.0011652239341749342, -0.00048606898343472014, -0.00020056494541509818, -0.0009096519163960919, 0.000721838437869716, -8.903456461325441e-05, -8.211798282463802e-06, 0.0001825409138454833, -0.0002810917466390955, 0.0007491574251355067, -0.00018661028918950907, -0.00017641445500874185, 0.000534799876661589, -0.00024404910203479555, -0.0002163866376550522, -0.0004231203732553279, 0.00010496974329335341, -0.0005339974991257066, 0.00011883500499645492, -0.00014870506596695025, -0.0003513412289004984, -0.0008828480433631006, -0.0008901336580519925, 0.00020245991719284099, -0.00039983454637989983, 0.00020243235953217704, -0.0006708882964281005, 0.00015900149322949292, -0.00022647391109189972, -0.0001977688140099833], [0.00042672185199516503, 0.0005954204501083635, 0.00035663968749457945, -1.0986785101654149e-05, -0.0002091435195101292, -0.00026980359344967416, 7.811411120828652e-05, -5.891660285116556e-05, -0.0003569631759844727, -9.421981639200124e-05, 9.715210361189682e-05, 0.00010716930958589147, -8.930011145370045e-05, -0.0003439333792351224, 0.0003082061708335648, 5.890923692631775e-05, 0.0009657388414793408, -7.46990697037568e-05, 0.00038708533224438577, 0.00018012411217940003, 0.00015814729728746407, -0.00019482185532550863, -0.0004572772468192003, -0.00013999580848958517, 0.0007931919345431686, 0.00033181227551567783, -0.000605959941412793, -0.00016472953173827688, -0.000730074176824847, 0.0005065785037375851, -0.00039959092286024435, -0.0008713771521205243, -0.0004076489557882434, 0.00032811152054235316, -0.0006052201903635959, 2.8821642983578687e-05, 0.0003092727180984767, 0.0001342183040982284, 0.0003428737404308225, -0.0007413746441328029, -2.0445802278773978e-05, 0.00016535102918069247, -0.00014485497051250793, 0.0005786652974576508, -7.338971025879896e-05, -0.0003512663209284357, -0.00014533334962599679, 3.5829213461964047e-06, 0.0006220863549722407, 0.00019561016865323472, 0.0005670511080582539, -0.00024005386120333494, -0.0003718950794102244, -0.0002938291582100229, 7.991026246521342e-05, -0.00032828955414773107, -0.0003150109951554512, -0.0006303392086653642, -0.00014595431323638036, -0.0005643949311944526, -0.0002028090438459582, -0.0002080208880601153, -0.0009980225376797853, 0.00020741346813751756, -3.921233396858332e-05, 0.0006166251736812213, -0.0007493513700499355, 0.00015737778520810033, 0.0001416211312474201, 0.0008016457760466099, -0.0006117882050755739, -6.795780006063213e-06, 0.0005863461956217139, -0.0002747259274254482, 2.360452434546844e-05, -0.0004982445880715388, -2.5102104045647763e-05, -4.94889995313999e-05, 0.00010013724836556941, 8.434579964740826e-05, 0.0003410846225778646, -0.0008542479814520978, -0.0005092907815110935, -0.0007526312450939873, -0.0003868713072090909, -0.00037289074348781836, 0.0005411484272918841, 0.0001847657198912557, -0.00011572102328152498, 0.0008779903260236919, 6.070463678758944e-07, -0.000270512581000257, 0.0003043011942147792, 0.0001339731691278364, 0.0001990045575942953, 0.00017960689133166954, -4.4278398315638905e-06, -8.103964766054865e-05, 0.00043871468108334965, 0.00020303880065027037], [0.0005397649050070138, 0.00045582176101600013, 0.0008637130083774732, -0.0006322069938982117, 0.00020324685806947493, -0.00028793442096037864, -0.0008942630960843072, -0.0007125910001244206, 0.00039367391598077147, 0.00016031793801317168, 0.0006362676829998822, 0.00010138010474964141, 0.00017386220016850687, 3.559411357190282e-05, -0.0005759358328089492, -1.548375153612911e-05, -2.8477849811050155e-05, -0.0003222060330053264, 0.0003793812878856189, -0.0008546063394304347, 0.0003568879095210034, -0.0002294576971208046, 0.0003698641753055186, -4.368992256276595e-05, 4.758330771308295e-05, 0.00012691387046012993, -0.0005069370370094862, 0.0003795704438370809, 0.000801774065404025, -0.00031824787021226034, -6.797218414646898e-05, 0.0011594904910372436, -0.0003144180832128999, -0.00018019945134006295, -0.0003076979926150157, -0.0005001355286772816, -0.00011142968690922505, 0.0002393642007447652, -0.0006189414723439774, -0.00024045072310935982, 0.0001225213752348785, -0.001263416369292026, 0.00020262251152363106, 0.0006398808671306399, 0.0010259369938634675, -0.0002693545641596924, -0.0006058356557453464, 0.0007306862188625044, -0.0004190292596703454, 3.1576180820727495e-05, 0.00023823022138902994, 0.00034113707133058855, -0.0009071302951793704, 0.00019360117255346759, -0.0003862669981959614, 0.0003970278427966466, 0.00029180638526282574, 0.0003383883465862662, 0.0003718413884727249, 0.00013539988249392586, 0.0001928610858540636, 1.872751277369293e-05, -0.00017925048964596076, 0.001369831044316826, -0.00022184108691710943, 0.0002296570933411194, 0.0003015958830673674, -6.899724885758653e-05, 0.000429578456980497, 0.00015992788835790273, -0.00034919185909493126, 0.00038013874405114266, -9.676964944492183e-05, -0.0002871258198755695, -5.021925211016378e-05, 0.00023983963794561053, -0.0006676443946700529, -8.84510943135162e-05, 0.0008821171937710382, 0.00030364119704642226, -0.00038537782991385065, 0.0005603500111723002, 0.0001490312234952734, -0.00010339048996636822, -0.00020663355802087122, 0.0003307180933488908, -0.0005902838493163989, 0.000272572177387401, 0.00022795790482372906, -7.849645299299507e-06, -0.00030780350497576747, -0.00026910119371538385, -0.00034278749083319705, 0.000253906810750364, 0.00031153961509626564, -0.0001081963600088687, 0.0005956227739018936, -9.706347001464515e-05, -0.00020621244978349517, -0.00028870493007497367], [0.00030093401308531846, 0.00012725919132634822, -0.00012635705271803245, -0.000242639178294189, -0.00037539026948888923, -0.0006396712199428178, -8.142502579586391e-05, 0.00014023260017821776, -0.0008922807355427409, -0.0002990059258264067, -0.0002380011112288211, -3.7374833986512755e-05, 0.00026676672508380467, -0.00044244712968456387, -0.0005475000514737919, 0.00030639534945193586, 0.0003289369702535208, 0.0001807568098442455, 0.00016381341283734142, -0.0007842513332374032, -0.0002673851204415543, -0.0002831734865128792, 0.00039100725912744424, 0.00034973240598711036, -0.0004837742146688365, -0.00011051040220794736, 0.0003045730227444884, -0.0002442790142643169, 0.00010386895170138061, 0.00037732635797910864, 8.2888053327514e-05, 0.0007397066561445442, 0.0001611876508000495, 0.0005049595415968616, -7.957723252185594e-05, 0.00036059231474589023, 0.0003241424662062857, -0.0007523292286943442, 0.00014835174669443918, -7.203366997803391e-05, -0.0010130902462585612, -0.0005710098648574799, 0.0004174381420047796, 0.00031921802495738156, 0.0004382823470372421, -0.00017345393642959937, -0.000717934785304187, 0.0003955335918246387, -0.00038756534707136994, 0.0010818921093155318, 0.00026416894304823933, -0.00048128998655599866, 0.000349174935821615, -0.0004899000869095296, -0.0001729913529087828, -0.0003456859279758917, 0.00035430248398674014, -0.00018761439646413304, -0.00032905874565687665, -4.7166684392117145e-05, -0.00040356013479104667, -0.00047923671769176416, -0.0006234153734232898, 0.00030513053369605347, -0.00033105715529476256, 0.00035978769503855533, -0.000401300691014571, -0.0003600406318886776, 0.00046134664169186995, 3.5190015678755346e-05, 2.67778197040985e-06, -0.00016099021713906168, 0.0011258737147048122, 0.0006760424124712915, -0.0005751703956666563, -0.0006862372084038849, -0.00019669965552306752, -7.910402661295478e-05, 0.00034634885517105995, -0.0007678780662228487, 0.00010226652141755667, -0.0002577100910810051, 3.0270775504327367e-05, -0.00048532835368803387, -0.000246603594638193, -0.00010724340047867799, 0.0002752393203714163, 0.00020898319106738082, -2.499712930744871e-05, 6.270040831277398e-05, -0.0006701559325797947, 7.586064519124853e-05, -0.00011605256578247226, -0.0005065997379143033, -0.0005579700931696364, -0.0003438602403437596, -0.00038660435884635896, 0.00038400649024590273, 0.00021801728627733664, -0.00028928780349866474], [-0.00015299621355462068, 0.001443194795160453, 1.3364103024785639e-05, 0.0007393663645011072, -0.00023545885893799313, -0.0009380742248361135, 0.0005280067428216131, 0.00014167017691819355, -0.0008435290761798415, -0.0007603535207953808, 0.00045804574347948926, -0.0009762098455906629, 0.00010356750834685598, 8.559755246466165e-05, 0.00020103277297296623, 0.0005206084804681336, -0.0003678727176857984, 0.0003461692036512661, -4.496682681103045e-05, 9.53944511025048e-05, -0.00042681134102082587, -0.0002429109498433815, 7.86796579649675e-05, -0.00016302870255189335, -0.000962294566440471, 0.00038870020642136656, -3.206037846573181e-05, 0.0007096181867059752, 0.0003218392014110293, 0.00048051351509297577, -4.904254252312322e-05, 0.0005251674935011075, -0.00049156176295846, 0.0002369605730203508, -0.0001265194136800717, -0.0007101857417199598, 0.0002554148850396834, 0.00048572057859537927, -0.0009529190181032408, 0.0006186292366867611, -0.00016029874393999513, -0.001020930181510962, 0.0005654153153003339, -0.0003516576390974412, 0.00031368765613665347, -0.00031088757108127226, 0.0009410966577785923, 0.00027074335587290026, -0.0005609291307762908, 0.00034061788331227373, -0.000516043602663387, 7.240779227204213e-05, -0.0001844408293964564, 3.109380457561027e-05, -0.00018938515152359142, 0.0002348210478138865, 1.2882327468887317e-06, 0.0006723606116880156, -0.0002718833525539462, -5.30876962266888e-05, 0.00017639133879510671, -0.00025221851609338544, 0.00026150429529918573, 0.00022223887481528188, 3.7921054740188814e-05, 0.000470794550569607, -0.0003276908503493301, -0.00030763760617357546, -0.0005151448490733261, 0.00013015303720541503, 0.00037141142813352954, 0.0001231399934927831, 0.0006245112083012874, 0.00039479094850813955, 0.00030819259630382933, -0.0002377883041757053, 0.00030356826861502014, -0.00010132043498918675, -5.586515709045064e-05, -0.0003270321989369226, -0.00047518172057049073, 0.000565392542256962, -1.2507051856869853e-05, 0.0001553621660822264, -0.0001762519537784123, -0.0006313611166004138, 0.0004513636635789827, 0.00023537453055472418, -0.00031036585825611245, -4.568271957208939e-05, 0.00010546734471154103, -9.280865491786283e-05, -0.0004927170619169185, -3.391332634483347e-07, -0.00011086186583225654, -0.0008509609087310635, -4.718599697397982e-05, 0.00018730584906094584, 0.0009665128643492361, -0.00013116812600584354], [-0.0002060563694145052, -3.889156522036109e-05, 0.00022971212639713115, -0.0005306248035434115, 0.0001061101673480771, 0.0003164023226885406, 0.0003296554444378343, 9.445879645257576e-05, -0.0006070336550514985, 0.0009014316120892849, -0.0004479759744055246, -0.00022416111273147214, -6.715098040181056e-05, -0.00044151924579944284, -0.0004523768959353865, 0.00013099558312645098, 0.00028921265795567915, -0.0004654279976505537, 0.0006914132781217806, -0.0001258424836272393, -0.0002797184993239907, 0.0008005895987483977, -0.0002718734665612055, -0.00026167919817108074, -0.0007070684977274587, -0.00014374268728097763, -0.0003759650332198074, -0.00033814786753478296, 0.00044892079162274436, 0.0004921332820173062, -0.0002892301240295432, 0.0005348721546117568, -0.0003615927919005597, 0.0004273551633105548, 0.0008606316547900653, -0.00013726547314883104, -2.4826217892654853e-05, -0.00035820929374683237, -0.00030215927580777254, 0.00043539772443354144, 0.00015770507427747226, -0.00022919206154842675, -0.00024860558639692364, -0.00012879295018983032, -5.9107583064994407e-05, -0.0007472899360282579, -0.0007223275435948079, -6.438274375894612e-05, 0.00055370490091942, -4.731035964839508e-05, -0.0005688200312468118, -8.782653980717134e-05, 0.0002525645882966492, -0.00011498849740870678, -0.0005458720524354999, -0.0005789912552059475, 0.0009111138007601137, 0.00023066249799391406, 4.629326770339279e-05, 0.0006109886885651546, -0.0007543861591597901, 0.00025714815423867143, 0.0006337084618061472, 8.13918837460823e-05, 0.00044520132396805344, -0.00012006845062425471, -0.00024633033078855096, 0.0001462096421963355, 0.00010743011798418532, -0.0006898698789255431, -0.00014237972175443125, 0.00022773243516936186, 0.0007578958148076247, -9.100157416552818e-05, 0.0006056243849630312, -0.00039646798601537694, 0.0009458203951259192, 0.0006471883054266605, -7.824103418278182e-05, -0.0007323060066692063, -0.0003525281462475905, 0.00064853073887939, 0.0006335780680929762, -0.00025412980913028346, 0.0008274672807388448, -9.160095856070259e-05, 0.0007308836619599516, 0.00029805455637788546, 0.00013877789417224894, 0.0004189357222286506, -0.000689117680612171, -0.000831546255006342, 0.0005083260255401386, 0.0011225532881180835, -0.0005873442299227415, 0.0009789039068614606, 0.0003717028997594436, -0.0005838524921871044, 0.0012796593274008792, 0.00021536459937423311], [-0.0006385782892488565, 0.00018607911245099732, -0.0007415040860920823, 0.0002852219002064786, -0.0004434483028858052, 6.701884507516615e-05, 0.00042917391826668993, 0.0005117334634225401, -0.0007154945585480238, -0.0007169482030401873, -0.0004106695999762954, 0.00011499451811419768, 0.00016680064429790755, 0.00033123609715401026, -4.995998115777679e-05, -0.0003244324132251057, -1.683318535530475e-05, 9.0612742001421e-05, -0.0005138245662051677, -0.00035682635010420206, 0.0007535424924068361, 0.00012598787046410695, -0.0010121657432963355, 0.00038902335821851405, 0.00026529126064479727, 6.501328619437135e-05, -5.1734678777954684e-05, 0.00018212624878803166, 3.7409730789198517e-06, -7.855115341950936e-05, 0.00022998927990551052, 0.0003829284998154757, -4.2945018290884286e-05, -0.00014388236098107445, -0.0005016641328176435, -0.0003569116564420403, -0.0005221047815816798, 0.00014693405484006642, 0.000829916202408259, -0.000841640331181737, 4.313251693405642e-05, 1.9671182525817745e-05, -1.7997496994437047e-05, -0.0002590668263676819, 0.0003556759045411666, 0.0005300062267900808, 0.00020905393027605091, -0.00021278134797519154, -0.0002694447804423458, -0.000345927215015675, -0.00041119683276645005, 0.0004756760831517896, 0.00034194931130856365, -6.993496560354452e-05, -0.0007339106875679205, -4.19789704535145e-05, 0.00035810097283596465, 0.0007529550555037586, -9.557815068605775e-06, -5.383154310418026e-05, -2.1886557386580057e-05, -7.899130636099781e-05, 0.0008143411257576082, -0.00026384860084756925, 4.053576900394579e-05, -3.131296899934348e-05, -0.0002609862820204412, 0.00013861740881320793, 0.00029581199530251563, 0.0007823627543187318, -0.0007966222401765646, -0.0003109370958228512, 0.0006655008778788442, -0.00038280708960511546, -4.2030072867874314e-07, -0.0005109057622856384, -0.00013726399022971847, 0.0005858010839509953, -0.00029276278438556465, 0.00013384717258655297, 0.0011707902078795845, -8.012540896483053e-05, -0.0008654731750910064, -2.4635308211661407e-05, 0.0001727590993487003, -0.00021917051507724215, -6.494377171336803e-05, -0.0001487948074920405, -0.0003128929753712234, 0.0002290980533498095, -5.4804856362631014e-05, -0.0007500886723995659, -0.00029220368984291635, 0.0004868579622898609, 0.0006413522776897572, -0.00022651217566529563, -0.00034659491777383716, -0.0005660710323620107, 0.00019576572517620704, 0.0002574366589240878], [0.001625830747033683, -0.00018440357897786, -0.00038010832434832943, -0.00012222551954743605, -0.0005492379869246536, -0.0003719044698347529, -0.00010290601666780808, -1.135561909964326e-06, 0.00035258682997676315, -2.7468488562121947e-05, -0.00026571462950313154, -0.00062433648550254, 0.0009247566982990389, -0.0003284188393836546, -0.0004000444117283602, 0.0002891004483558362, 0.0002982443588428351, 0.00041983919149921734, -1.2944702918379361e-05, -0.0008193965688781023, 2.5424269470163966e-05, 0.00045150804477061824, 0.0008496224553615173, -0.00043137927372793, -0.0006234437404045966, -0.0003245264952354136, 0.00035119277972217903, -1.4419319309936875e-05, -0.000496750398209682, -1.2567278546554752e-05, 0.0004643634998970293, -0.0005143700457614254, 8.117916901686831e-06, 0.00031096844429341007, -0.0006182414880903883, 0.0002842548904545434, 9.73379847854636e-05, 0.00024573259717801296, -4.0273563460717956e-05, -0.00035143164842535045, 0.0005091138464580286, -0.00021608269745802797, -0.0002571763022913669, 2.661594702671969e-05, 0.00021529092570453124, 0.0001528659383852754, 0.00041842549335061686, 0.0013791996381981835, -0.0007624461809163438, 0.0008698014492894874, 0.00022547573479047325, -8.025122833472023e-05, 5.17017346434551e-06, 0.0004853639236810296, -0.00015633968783901502, -0.00022984998046329943, -0.0001207439563091782, -0.0006040919317083539, -8.093400020271897e-05, -0.00022524543509629767, 0.0001364621296178575, 0.0009446945736407545, 2.214965193884647e-05, 0.00034518871291344997, 0.00039672941192053427, -0.0004222846501032716, 0.00033928377544574116, 0.00046572696746174534, -0.00022864671695424282, 0.00021937223188339675, -0.0010153994947259726, 0.0007097587147225064, -0.0006547536575445947, -0.00032287678646711126, 0.0005412533771377686, -0.000354141556446043, 0.00044833636563339956, -0.0001229436438860824, 0.000128495552942618, -0.00047074994236311063, 0.0006898323794621216, 0.00016972564056493987, -0.0006095384599346387, 0.00046228631275219216, -0.00029336876390760987, 0.00039318862316267553, -0.0002657920544240598, 0.00021997369703557207, -0.0012786649537527065, -0.0010659580090130575, 0.0002535764957463774, -0.00045471502053020976, 0.00016925356537328954, 0.0005178453204197446, -0.0007851568399952167, -0.00022228066891363292, -0.000652015535120321, 5.943219090624158e-05, -0.000284692933518538, -0.0006181137131467153], [0.0002597856079748748, 0.0009843565441767586, -0.0003248983153062767, -0.0005746377605709901, -0.0013026925090187814, -0.0012170161696291443, 0.0008771549551179272, 0.0005540007610816842, 0.00019681254459914195, -0.00016455401772573833, -8.381561988561243e-05, 0.00026252151541105443, 0.0008713421461492319, 0.0002698208960678009, 0.0001622563785823264, -0.0005143424352426652, 0.0002947064499167431, 0.00013211291421729303, 0.00021148649267715964, -1.6082596874917075e-05, 0.00026277182173335093, 5.228484877058534e-05, -0.000310551713821273, -0.00013737906633509337, 0.00014120577925775065, 0.0002250404735708275, -8.30820444671821e-05, 0.0006187942412309841, -0.00013451767510855913, 0.0003535973218946255, 0.00029378469133567133, -0.00020373366929947773, 0.0007368736970567518, 0.0005362668754945262, 0.0006322733391540486, -6.688508487962043e-05, -9.82247590953141e-05, -0.0005068735058725389, -0.0006048983407249531, 0.00010858325160396955, 0.0001283294212700018, -0.00015053343555035102, 0.00014508545552451222, -0.0005675786609134393, 0.0004730723929040986, 0.00013664212243910437, -0.00012863249141877007, -0.00019378375453342838, 0.00020419186523515755, -0.00021868761785872313, -0.00020415615208097885, 0.00025474871633271527, 0.0003634643117694759, 0.00018074733715650243, 0.0003935841070290455, 0.0003013743323721653, -0.00016546420779398524, 3.623434295832298e-05, -7.140898495305026e-06, 0.0002554931204886702, 0.0005950943361004232, 1.0319399920082882e-05, 0.00018681585149609158, -7.73102964148566e-05, -0.0004295587747118574, -0.00015887546010591344, 0.0006605209015146441, 0.0002937951598500484, 0.000483126061903126, -0.0007265858593425692, 0.0008415351585349092, -0.00014656222792532625, -0.000402771007806028, 0.0009686780313184811, 0.0005541809118374472, -0.00019351877245339042, -0.00013325894123955066, -0.0005283014001875631, -0.0001939087614838029, 0.0012737724138515883, -2.4279753664566474e-05, -0.0005531639795311936, 0.0005349075588475741, 7.047747415022539e-05, 0.00048257271253879805, 0.00016281236805702737, 0.0007813757446053725, -0.00012459140308854983, -0.000907797074196979, 0.00021443600139080428, -0.0002749098545840539, -5.369788957135526e-05, 0.0002807656563751344, -0.0002887814807090798, 8.780494338534639e-05, -0.0005139744918867933, 0.0003186839706250922, 0.00030413340745312186, -0.00013863132324727078, 0.00033959343893931844], [-0.000689422083481575, -0.0004788193123839501, -0.0004986499218046826, -0.0005895029299986203, 0.0006389997713927473, -0.0006076804882408796, -0.000424947883399852, -0.0003233601026974678, 0.00013675719072217668, -1.7102166447605576e-05, 0.0006937324098989935, -8.320770840900487e-05, 0.0002465274786682305, -0.00021412556105531596, 0.00018856739300520298, 0.0005861089178243275, -0.0002249846293454491, -2.9427849698197705e-05, 0.00019895636629652208, -0.00021090478331609454, 7.824912658200824e-05, -0.000262836145070191, -0.00015260707551825796, -0.00016862342586720588, 0.00012121200218093304, 0.0003158764389400839, 1.2403252588460806e-06, 0.00048565430276038477, -0.00027174784812737673, 0.0001631831308298167, 0.00014031674586883328, 0.0004460302977944665, 0.0002723195452636645, 0.0007030929071846915, 0.00042205942136253126, 4.877154268730498e-05, -0.00027583543270276716, -0.00015907943221401546, -0.0005723331243173153, -7.685799750463908e-05, -0.0003515460079126953, 0.0010928307405854555, -3.0503179373299707e-05, 7.903198537434432e-05, 4.826752573669214e-05, 0.0006197926845778948, 0.0003472479014306175, 0.0005154136229827507, 0.0003548987822107464, 0.0008526495580674803, -0.0006020029406128636, 0.0007894840631022577, -0.0004244792895071687, -0.0006228932522111081, -0.0004330424532657128, 4.1655979132953434e-05, 0.00017969914441156958, 0.0003722086079329557, -0.00023685798174327894, 0.0002124959640620345, -0.0005684070901542839, 0.0002911304485290742, -0.00012512237952878912, 0.0003312781602124869, -0.0004040516562903278, 0.0004240298085802744, -0.00033499640385223654, 0.00013488631130212052, -0.0003173028460385713, 0.0006077056600304273, 0.0006525640728067437, -0.00018210138430853605, 0.00020335783683744378, 1.5442771720357935e-05, -0.0007692704462609485, 0.00016824060899596287, 0.00026565446961860305, 9.856118297488242e-05, -0.00048032052034523566, 0.0005751683432023404, -0.00043500774572813924, -0.00028917254608466547, -0.0007953291067988261, -0.00040828627162687063, -0.0003234647025281719, -0.00011669156248228549, -0.0008572701072467196, -0.00025273361332037544, -0.0006360209800887205, 0.0013025340099171072, 2.653863787831196e-05, -0.0001637499480542972, -0.00023448912237312715, 8.611356767325136e-05, -0.0006548323189252649, 0.0003307575129171206, -0.00030940125280362455, -0.0004997640322194571, 0.00029245893477873125, 0.00031683978588549955], [-0.00023045663439889703, -0.0004155410995950646, -0.000260331891647393, -0.0003385034656761143, 0.00018386909838943432, -0.0001459066357667346, -0.0008829069065978608, 4.008820820936766e-05, -0.0007241375140554101, -0.00021024373711398664, -2.6817871035730872e-05, -9.601952422033965e-05, -0.0001956140752763333, 0.0011394477935175455, 0.00031242492418420334, -0.00019747729790028177, -0.00046180744902110627, -2.4860174303041292e-05, 3.329944695607447e-05, -3.4353267063106636e-05, 6.560566185177433e-05, -0.0008566465697720783, 4.286980975444734e-05, 0.0002026636825785422, 0.0005771083860457892, 0.0003941914000027335, 0.0003287115124784389, -0.00029756819531018465, 0.0003653235901605739, 0.0004017831014066914, -0.0004800491551375687, 0.0008685655498061606, 5.049803908252853e-05, 0.00034608526064137056, -0.000498034795872111, 0.00015186372539769836, -0.0007592536707028579, -0.00012613691056444023, 0.0007297593705928923, 0.000580865687516803, -0.0008816031941064201, 0.0005411333620095625, 0.0005612382354615379, 0.0005547841959878955, -0.0008937301624085017, -9.802184002737039e-05, 0.00010398794307130175, -0.0006744116308693921, 0.0005303352939270017, -0.0004570943755881098, -2.352033298404725e-05, -5.0129119287573716e-05, 0.0007834007352460376, 8.890521416502934e-06, 1.579364120650911e-05, 0.0001709402082276483, -0.0001832658764244159, 0.0012140376288499017, 0.00057411903188719, 0.00019906132595113414, -8.893183287748667e-05, -0.0004461693860476718, -0.0002686127682507248, 0.0003003066476611546, -0.0001764259922500887, -0.00042929663378701285, 0.0005652933719864049, 0.0003881679170323171, -0.00038403294147437196, 0.000652990126758131, 2.3097588258010198e-05, 0.00021769774443338135, 0.00019513694518678515, -0.00044581508242104483, 0.000608255018642331, 0.00025844473489476097, -0.00020510608576140951, 0.0008294327070035626, 0.00032231598672799797, -0.00010882286231913275, 2.143388232462072e-05, 0.00017271257270104858, -0.00026039089906767365, -0.0004448593891310501, -0.0002358879382777613, -0.0010695231061473057, -0.0003512368946563549, -7.053625273351481e-05, -0.0006360553400190009, -0.00011926937605852824, -1.081524285834747e-05, -3.9232869259006545e-05, 0.0006453316560816308, -0.0007871898158529358, 0.00023251630809874207, -0.0008006694090580219, -0.0006600492885313066, 0.0003634580513111629, -5.275035152051245e-05, 0.000661323826873901], [0.00020090847937126756, 0.00019681991022246276, -6.135037292836323e-05, -0.00032480250455011936, 4.787437257809321e-05, 0.00033832607154116, 0.0004259381096275169, 0.0011976424708972917, 0.00014750735882594168, -0.0009456121278452842, -0.0007336659502390414, 0.0005805658881496003, -0.00019107610955950753, 0.000366614237562104, -0.00030548769949046323, 0.00018930538055673507, -4.150390243177066e-05, -0.0007553522258934906, -0.0002835500711556195, 0.00020910307031236607, -3.681384467509746e-05, -0.00019318111478703652, 0.00041224499314997267, 0.0001927494375324098, 0.00010767535019785584, -0.00010488069482353082, 0.0004359733951815337, 0.00012501540658204244, -0.0003431702712984585, -0.0003503429130630383, -0.0001708873640511194, -0.0003672064585299624, 0.00047773231566039954, 0.00043800297356779913, -0.00021752968798727964, -0.0002483415586080362, -0.000936826307627647, -0.0001899460893800707, 0.0006934530595535606, -0.0006933237634158293, -8.599167650599716e-05, -0.0004460497604600977, 0.00018801717890183357, 2.096229317651038e-05, 0.0004800470293204738, 0.0004191594425516767, 0.0005669746692748182, 0.0006708625149050923, 0.0003248394909181832, -0.00042324289561957644, 0.0010797202494471608, 0.00010906515071183135, 6.0381308606191034e-05, 0.0011088739853815774, -0.00045355739800566146, -0.0003467677709948358, 0.00042840930788389, 0.0003438010311499097, -0.00015796931881225762, -7.418830252784635e-05, -0.00010872707708439746, -0.0009950667465246702, -0.0005443341906272973, 0.0005650756833050992, -0.0006794043226773549, 0.00018604175455844745, -0.00027814760396141725, -0.000743925932324891, 0.0005686031251333879, -0.00019157212857308313, 0.0008060790624844659, -0.00020967106871435867, -6.221524636687741e-06, 0.0006444052159432747, -0.0002473299179593823, -6.899741119987424e-05, 2.302985979689147e-06, 0.0005291763228598597, 0.0006874711079622824, -0.0004206999975461824, 0.00020328426415836722, -0.0003791521552158733, -0.00028083136163285414, -0.00023876848539387273, -0.0004386102676127378, 4.318089927530079e-05, 7.348161675974898e-05, 0.00015526935339963937, 0.00047697351209381153, 2.9381331243232724e-08, 0.00036053529417711793, -2.055315514876721e-05, -0.0001421721215211733, -0.00037781084415074406, 0.0008398451076332902, -0.00027537421014995803, -0.0002281760807842638, 0.00035641544804850044, 0.0002992848342122979, 0.0009213627514605519], [-5.3419640192633536e-05, -0.0006170682604707666, -0.0002524542503437543, 0.0006090816764962259, 0.0006278819564977906, -0.0001347232749840481, -0.000190631458876019, 0.0005178630689019196, 0.000251743230337776, -0.0002875926231943177, -0.0008259698867864924, -9.002501152733343e-05, -0.00028640520341604436, -0.0007056856641931369, 0.00015558315038864402, 4.282439126768524e-05, -3.01714310709835e-05, 0.0002359576109521302, 6.284071784987622e-05, 0.0007698167747565727, -0.0011287394946851038, -3.0412730511123014e-05, 0.00033324767174842344, -0.0009162186482332444, -9.329630568557799e-05, -0.000657259680154319, 0.000264306821600147, 8.642440385790213e-05, 0.0001758666402828571, -0.00024977322889621053, -7.850874114952706e-05, 0.0001748030333831742, 0.000181656818617367, 0.0011865220829959588, 0.0005817953397010751, -0.00016875275461166557, -1.595993205709072e-05, -0.0015035971855872732, -0.0005326773981732747, -0.00020923691445992156, -8.909712095855207e-05, 0.00014933334841878143, -0.0006650377057852738, 0.0006607220716196094, -0.00048755935107920714, 0.0007733516361254435, 0.00026958879657929495, -6.304597678005707e-05, -0.00027296461326356753, 4.2742873632585516e-05, -8.116827899797774e-05, 0.00029324618669268187, -0.00012836386357736355, 9.630151525765022e-05, -6.967883474030873e-05, -0.0005808420236784868, -0.0006437515879277399, 0.0004298404473428235, -0.00012892068028266387, 2.5556282998292542e-05, -0.00038368917924317764, 0.000226321467073442, 0.0005525159767444176, -9.444671698786815e-06, 0.0002956878602085366, 0.000371100831745395, -0.0007095429123831775, 0.0002926090490502994, -0.0002767984595754978, -0.00026209323018451595, -0.00014041587853274987, 0.0001606927517163729, -0.00019360804891677797, -0.00041893504586288147, 0.0001558709795621776, 0.00017559066024734623, 0.0010174612772060974, 1.7344373080551206e-05, -0.00010526933972164872, 9.125436625654222e-05, -0.00028340714284628765, -0.00041578816737589434, -0.0007886659685798792, 0.0004080423255034457, 0.00037250036146803725, 0.00040054823697362456, -0.0006787237009302892, -0.0005002699136505554, -9.194195447810536e-05, -0.00015538444283318828, -0.000939333895299423, -3.609774259914943e-05, 0.00045470240406716506, -0.00045891024809395205, 0.0005950566199141047, -0.00017994991874327942, -0.00037889698370706214, -0.00044047086794225256, 0.0003984777869143902, 0.00043288725381050133], [1.8676017969905117e-05, -0.0006674389986581554, -0.0004670279881139245, 0.00014877547162076504, 0.0006329403607857626, 0.0005337052395656405, -0.0007999078754632959, -0.0004512678655368246, -0.0003260843877520757, 0.0005453319705975642, 0.0003093622568699879, -0.00016349593024787633, -0.0007074099415277177, 8.058352709919786e-05, 0.00010029335202258632, 0.0005941179150771446, 0.000246494915966339, 4.163692761330187e-05, -0.00011404096520964538, -0.0011422963626029896, 0.0009203042214978723, -0.00013368922349162046, -0.00022724031054299128, 0.0007792931010683728, -0.0006528357623495657, -0.0003740274138885662, 0.0005238762075130236, -0.0002014147628630979, 0.0009997163861922354, -0.00011863834664917967, -9.539696894555791e-05, 0.00033395882065060355, -0.00018532604557785907, 0.0005710803053431394, 8.518854857445811e-05, -0.00022196461343904208, -0.0007220334557481331, -0.0012812198410772932, -0.00047897979640314816, 0.00012689819741210445, 0.0004347458201914011, -0.00010039333808236145, 0.00027745731850986095, -0.00017146913232262328, 0.0003735999949639478, 0.0003202459037013989, -0.0004071731759977457, 0.0001841108592189183, 7.286320692461818e-05, 0.0002328860124425141, -0.00028437694661756534, 8.488489749627278e-05, 0.00037240922434269934, -0.00027586989167788006, 0.0005065275355241953, 0.00044254800637807045, -0.00030591941999712305, -0.0006945027758895461, -0.00022625715953335956, 0.00031505844229321746, 0.00015630415539883894, -0.0004331259671133255, 0.000594041026060144, -0.0006150379318538044, 0.0002286769748566273, 0.0002418339319649188, 9.273456451489362e-05, -0.00014301105077733277, 0.00020097319220204336, -0.0007962332552396188, -4.4910057947639026e-05, 0.0005106410333205993, 0.0006637929282151463, 0.00022281959710904813, 0.0004831330723058685, 0.0005894602934918346, -0.0003661395162941594, 6.706945047480822e-06, 4.706129691279954e-05, 0.0001925898607686692, -0.0013445606336847339, 0.0002904863996673187, -4.580359574275966e-05, 0.00020926706324135525, 0.00016106119804520715, 0.0006936544235071926, -0.00023131019885488284, -0.00032449263667838407, 0.0004617955143258315, -4.407251539196158e-06, -2.8788522904611795e-05, 0.0005783660288391066, -0.0005174797354245272, -0.0002753714324408337, 0.0001254149507235094, 0.00015624290950008116, -5.919513619768381e-05, 0.00042927132930031114, -0.00016077079430442038, -0.0008054028672413536], [6.565020373393896e-05, 0.00031320326563279095, 6.211726788621911e-05, -0.0003543860243356658, 0.00021032162755136547, 1.9624405032937727e-06, 0.00017217561619065487, 8.776134073441654e-05, -0.00013075547976310728, -8.044747697477071e-05, 0.0006092771338920279, -0.00048289510642886784, 1.4297024880168823e-05, 2.7230248572412828e-05, 0.0002566615345915246, 9.084778863973744e-05, 0.0003177866400717946, -0.0002970761301648455, 0.00025183005043128033, 0.00045597714390612735, 0.00016081993852487035, -0.00039732417852710077, 0.00023154815000133618, -0.00016532547757231207, 0.0001829254011159658, -0.0010052737502423232, 0.00020793009250612838, 0.00013235010404140165, -0.00011763833876551384, -6.649937203616095e-05, -4.493469893464058e-05, -1.2171572291996649e-05, 0.0002912721154552213, 0.00038468904061217645, 0.0009000082483674123, 0.0006450258960502674, 0.0007933590837132043, -0.0005302677696823418, -0.00011382204568510503, -0.0003835722680985902, -0.00019026426108415445, -0.000579231812439337, 0.0012640287445931082, -0.0004420241014283679, 0.00020813770119101012, 0.0005258954763949565, -9.02210543391221e-06, 8.029740180001438e-05, 0.00015308945939978362, 5.239723610328122e-05, -0.0006073882804375327, 1.5310071647279022e-05, -8.18122196832446e-05, -0.00024510811429548325, -0.0008782380349877947, 0.00015268969196136116, 0.0005520564052438838, 0.00047502675979534126, -0.00034544469115053837, -0.00010320369252048763, 0.0003862135014116913, -0.00021960833796797293, -2.640524063953974e-05, -0.00024324655510677288, -0.0006038986331478681, 0.0005319761972222421, -0.0003049528015217115, -3.036661508274617e-05, -0.00020482270198366435, 0.0003712986143657769, 0.00040949387252492403, 0.0009226507414350771, -0.00035649128598551984, 0.00015987337796614454, 5.47963286447827e-06, 0.00015498757132375053, -0.0003736052059414628, -0.0006527795592817967, 0.000766362135274293, 0.0004936607516479104, 3.7321678113847454e-05, 0.00037707041256003054, 0.00021109956740590223, 1.9870763098316268e-05, -0.00013105990764043413, -0.000280497406859242, 0.00011535649670689377, 0.00015567913824330494, 0.00010992709411629032, -0.0006757385548936113, 0.0001586010720463662, -0.0002258354136479775, 0.0003013711230985767, -5.929512945862398e-05, 0.00023972347333711523, 0.0001535062850276706, -0.0006230981308381466, -3.329281044102953e-05, -0.0006779463005775504, 0.00022391638576272212], [-0.00012780933295845494, -2.2102018584459827e-05, -0.00018510602973439302, -0.0005346108356505805, 8.542288080315129e-06, 0.0010013612539984602, -0.0007076200655364673, -0.0002475903216473417, -0.00018270460994894615, 0.0005393310009736452, 3.730948788740823e-05, 0.0005355812931527304, 0.0004999992579725546, -5.006305540422663e-05, 0.0005837118546776801, 6.165012689286581e-05, -0.0010840621812548007, -0.0002444459708502515, -0.00025967509083735983, -0.0005687800916285178, -0.00029742893824905416, 0.00036826333099743955, -0.00048600737481846673, 3.952740978679857e-06, 0.0006354957719265589, 0.00044431508952871916, -0.0007160222387769408, 0.0002866266915056447, -8.651328429412005e-05, 8.300765649603899e-06, 0.00043230896562069577, -0.0002886397942849608, 0.0005439122872582824, -0.0002363673730246629, 0.0002708126958434447, 0.0005922559805183364, -0.00028441134017142617, 0.000378468134337954, -0.00017519615874304954, 0.0005891011259519391, 0.0001384465587575813, 0.00019489742679968105, -0.0006146385214709509, -0.000402975157582429, 0.00039609801441406185, 0.001249145428651859, 1.6220554207048862e-05, 0.0004098959059362766, -0.0003560910207535176, -0.00022894920630535246, -0.00025979916750028644, 0.0003243573236309772, 0.00010236484979900803, 2.763274607610359e-05, -0.0008056470301862242, 0.0005526669792886646, 6.283429697916615e-05, -0.00011697263262353841, 0.00045293979431260454, 0.00035327537291448977, 0.0004352284188825619, -0.00044680572896903833, -0.0002657122514003263, 0.00023333039034741017, 0.0009485390454244914, 0.00028167640559160345, -0.00011177510977844903, -0.0002710579967112466, -0.0005565204176040169, 0.00013489785673806562, 0.0006306041717242993, 0.00013315471133602428, -7.747262294040098e-05, 0.0009450825954320663, -0.00021893711572192002, 0.001006584966348444, 0.00012288509776011902, -8.489303796173959e-05, 2.7085978118876644e-05, -0.00022735846131648297, -0.0008996858278648795, 0.0005244862107174566, -0.00024476019244849346, 1.2857996276049191e-05, -0.00019708627300247256, -8.95440080611139e-05, 4.693686004322339e-05, 0.0001616272430906024, -0.0001763562099570891, 0.00044620435187773204, -0.0006099234246171327, 1.2498006741312613e-05, -0.0001895210049155234, -0.0006138752483370124, -0.00038082761462506615, -0.0003561620921597694, 0.00025524007872594205, 0.00011329778582166526, 0.0006130093071066928, 0.0006740301143897431], [-0.00013367622353601356, 0.0008559309825470738, -0.0005315451616243966, 0.0002876524446849392, -0.0006852491810165435, -0.0005448615964807976, 0.00011229897674361583, 2.0811070534051596e-05, -0.0008108950746063425, 0.000494029553643862, -5.0216447712170365e-05, 0.0004174309852869696, 2.515499409165277e-05, 0.0001786198398257233, -0.001081332163795666, -0.00017333028678871972, -0.00037002599308876076, 0.0008006674122315685, 0.00016308347681212454, -1.913005177422594e-05, -0.00023881875198142398, 4.863548632537266e-05, -0.0007741084694056486, 0.0005567761533506989, -0.0006180260141352774, -0.00021328918916750195, -0.0007245124734584518, 0.0006303881743016372, -0.0002241675585819376, -0.0005960870578004848, -6.086275088187134e-05, 7.496761386869199e-05, -0.0005354254035022708, -0.0008092557656043937, 0.00044159279144576584, -2.9355086803349796e-05, -0.0004267650118521708, 0.0006744416998915808, 0.0005485601960662653, -0.0002512095535924082, -0.0003380964237954695, 0.000723772388291309, 0.000495193209393887, 0.00018641591237608158, -0.00021313978988419963, 0.00010505554786562456, -0.00037989668514372063, 0.00027335365453554555, -0.0002835009331887716, 2.180218224833103e-05, -0.00034489788499580937, -0.00016216212333054314, 0.0007947325223818941, -0.0004413424995946299, -0.0009351312804665611, 0.0003285003948367732, -0.00027368098048684465, 0.00010150548236690469, 0.0005177070979897817, 0.00022302089348616742, 3.5191979741632206e-05, -0.000541170970815493, -0.0009173598041887321, -0.00027493577460895724, 0.0004960192806615239, -0.00025446231107034136, 0.0005865771570803331, 0.0006770878069027414, 0.0003796355364369358, -2.783967336537776e-05, 0.00014543829575396566, 0.0002855747321211594, 0.00023792437636677255, -0.00038071418764685675, -0.00026514159496792593, 0.0006332984409485633, 0.00032947063667173015, 0.0007705459206785164, -0.0007856942302621079, -0.00017339528487954502, -0.00017567951258544274, -0.0005374453199105485, -0.00019901448069126602, 0.000666830696694363, -5.90935335898984e-05, 0.0005545547442703984, 0.0002778970016724812, -8.179573758913334e-05, -0.0013435794196733806, 2.785477743664056e-05, 0.0007357471233946835, -0.00012766187484479862, -0.00014536503493436394, 9.4021300979015e-05, -0.0010392726931393224, -0.0005033862766465017, -0.00048745724219480366, 0.00031260238281496477, -0.0001856189172679414, -0.0002696791091360029], [0.0006331197872598556, -0.00019337052424924105, -0.0001693512051398543, -0.00022934650878091785, -0.00017922681670516497, 0.00022582092564456632, -0.0002946925156067377, 0.0003236106264769752, -0.000586284146130709, 0.0006505817488513769, 0.0004172870608271701, -0.0004120264234721994, -0.0001601530800320469, 0.00022793326280395312, -0.0010295430400843093, 0.00040172036187607196, 0.0003580225732730013, -0.0006171074293014434, -0.0005919493095072165, 0.00016614566244449303, 0.0002336101513864188, 7.420099388911677e-05, -0.0001571503420866834, 3.3565661091619986e-05, 5.5862800486127736e-05, -0.0012148696976319432, 0.0001124887683142506, 0.0005319979155997375, 0.00019810535639919722, -9.221950639774873e-05, 0.0006784827553437817, -0.0002067644853796884, 0.0007555763478380318, 3.5898821027552525e-05, -0.00011015725529807601, -0.0006691022965546493, -0.0009163312431176442, -0.0006118227035187564, 0.000326968318752565, 0.0005699107931811687, 0.00025416572559818233, 0.0001762217972016767, -0.0005694151819830741, 0.0003466376335454766, 0.0006438249766385698, -0.0001616494758864238, 7.442714356355819e-06, 0.000318639010341102, 0.00010620872759796176, -0.0009642119858576632, 0.0001453525425498818, -0.0007005512008229796, -0.0006099762871768152, 0.0003552002236941648, 0.0003759188060899569, -0.000988360829597271, -0.0007283963426783153, 0.001154375048201909, -0.00014520107376849196, -0.001045798594120772, -4.756758709643993e-05, 0.0002773538832393389, -0.0008814082115983243, -0.0005683249503484144, -0.0003332801819044793, 0.0007679815057021072, 0.00022857880724303273, -0.0006662065765317389, 0.0002586290887839505, 0.0002818140718025572, 0.00017674827693458183, 3.9138091999720515e-05, -0.000508499881381241, -0.00022349583394930665, 0.00027681193372070727, 0.00016080400057093223, 0.0002990286907962027, 0.00030307935256990875, 0.0005568454599644892, 0.00040482980532674973, 3.661147738984419e-05, 0.0005288871911035617, -8.081336582894724e-05, -0.00029564182294696613, 0.00012301826763405911, 0.0001133939718884487, -0.0005509195493792543, 0.000158649653529113, -0.0006348765711877737, 0.0005389191128771375, 5.979409372446385e-05, -0.00038804940385825165, 4.126082027293776e-05, 0.00032378081661596427, 0.00021945306152397834, -0.00035096014246850855, -0.0005388447401643444, 0.0001041486813567312, 0.0002929554778895495, 8.688996174800035e-05], [0.00021458650628794482, 0.0008369922507632868, -0.00018921154376542662, 0.00040572043292392505, 0.000781436202827707, 2.1991376485305855e-05, -0.00032726372587970877, 0.00011679820883977803, 0.0007402149432546674, -0.0001842668566193103, -0.000396222520366291, 0.00024008716717348604, -0.00032697931447533106, -0.0007821552747292736, -0.00017912519511562792, 0.001056746104803016, 0.00043029432336934054, -0.0006401321260897297, 0.00014950116106764034, -0.00033673623073925997, -9.318677491892203e-05, 0.0003255985899182366, -0.0009225457327811173, -0.0002635619953938592, -5.708442622058876e-05, 0.00038947950852553036, -9.372079669524433e-05, -0.000372028592287209, -0.0005483095006455166, -6.11834182901941e-05, -4.3462871228760825e-05, -2.4569868841798547e-05, -0.0001416528134028325, 0.0008793164328254005, -0.000494292773481437, -0.0005318321863939534, 0.00011001954249978421, -0.0002737047217371492, 1.9552744043051144e-06, -0.00025591344322449847, 0.001162210094902194, 0.0009490513593525251, -0.0005436225651746807, 0.0001524965472276184, -0.0003600258879892079, 0.0004924999129590598, 2.338775547427336e-05, 7.102791098222884e-05, -0.0001084540963368665, 0.00034888312147817265, 0.000471893721874199, -0.00034678178015227443, -0.0006794727946834533, 0.00014134964384556812, 9.855410446327443e-05, 0.0006532459754006003, -1.3222429621673018e-05, 0.0006388938658914397, 2.9086699282223922e-05, -0.0012067919625669745, 5.898620192796859e-05, 0.00011617997455813337, 6.75265975589376e-05, 0.00022087040394508253, 0.0004245932354088466, 1.6097914610360092e-05, 0.00013678098167437094, 0.000647571821588813, -0.0001462582823652194, -0.00041239116700229455, 0.00027047948383988684, -0.0005685834683037338, -2.0120309703613636e-05, 0.0001222837769628554, 0.000438857592253746, -0.00019537380053136113, -6.0325298395354625e-05, 0.00023918203460257726, -0.0002912490752632472, 1.5877029046363212e-05, 0.00043708676345625275, 0.0005974146327947675, -0.0005076220397531795, 0.0004429321001120687, -3.773986259796955e-05, 0.00047421254598095793, 0.0005003083534298413, -0.0004941234094676505, 0.0011580924366864135, -0.001170084639700166, -1.638092353675655e-05, -0.00022919928799655255, -0.0006023188664276065, 3.5710305319529386e-05, 0.00016132227918287982, 0.0003560546771820564, 0.0012495934776232227, -0.00022797732000277428, -0.00027656834868720106, -0.00035093221538438023], [7.385447632378814e-05, 0.0004956288911801306, 0.00014820890645992347, 0.0007480372143864317, -0.00026467976006634735, 0.00010965779592297652, -0.00029918492775293164, -0.0006384433853769306, 0.00020340041795090794, 9.673379818585121e-06, 0.0002428319163363873, 0.000830697090942579, -0.000297488954523683, -5.743588220637257e-06, 0.0005409004324802944, -0.0009610143536173847, -0.0005176559899742702, -8.656509086519428e-05, -0.0003016014254295865, -2.9850963626676077e-05, 0.00023308226408409621, 0.0016745025138925928, 0.0002742706004812871, 0.00021856632180230074, -0.0009250668148903352, -0.0005658834140263622, -3.089308467497329e-05, -0.0005505641960958802, -0.00028044573196627203, 0.0007846529389016548, 0.0004436870170955553, 2.916049648597065e-05, -0.00012436218837808815, 0.0002967053707735138, -6.425428889623632e-05, -0.00011265014046860131, 0.00034656102594822, 0.0004586237748415412, 0.00027962016265421904, 0.0002401500370657677, -0.0006525620351522646, -0.00031683010718983696, 0.00013861306092665572, 3.651331486221605e-05, -0.0006731774055625251, -0.0008179647112408622, 0.0003720309097631504, -0.00016645313302054567, 0.000124031169527135, 0.0005946499091241199, -0.0005483151429500134, -0.0005666676169795139, -0.0008513384913825712, -0.0011784538269208468, -0.0006728611611591034, -0.0004760346605362238, 0.00032520654523738186, -0.00039562929203791744, 0.00018094585023842053, 0.00036205188212689503, 0.00042260074731505204, 4.7190666233741793e-05, -0.0004197290438302758, 0.00014039926298616194, -0.00039451804862038436, -0.0005811778691472544, 7.309786271133097e-05, 0.00014404059225806928, 0.000450819923607189, -3.744007705493721e-05, 0.0004257901740130886, -0.00024822707582898763, -0.0004023893618318383, 0.0006516532076828683, 0.0005896010319026583, 0.00015194522301990152, 0.0006819511009523726, 0.00010900962852373845, 0.0007216584595782899, 0.0005892335793475185, -0.00018900132541575703, -0.00037459287893330096, -7.742195309048236e-06, -0.0002793521732874479, -0.0002201500833715221, -0.0005111963554221093, 0.0005971969206777147, 0.0003743794128414639, 3.5005048604472594e-05, 8.624390639657116e-05, 0.00033864884260297176, 0.0003496054311827803, -0.00010865054390967024, -5.777161412790303e-05, -0.0010723539043102923, -0.00041845366199918827, -0.00039002171811262763, 0.0006766343702780661, 0.00016541313386581903, -4.192880757321826e-05], [0.0005234190776049943, 0.0004869617985539257, -0.00038368883565914337, 0.00018679223405535005, -5.476979478689469e-05, 0.00010607032101974329, -0.00012837960259030854, -0.0005856681918774929, 0.0003725917373770184, -0.0003441337437450181, -0.0010568209592519103, -0.00030337317443141344, -0.00014592045467270762, -0.00027755419210758636, -0.00011418440599886407, -0.0007625976080272469, 0.0005584693575865508, 0.0006415326336967302, 0.0004774806606891377, 0.00016693953280414074, 0.0005857699021895221, -0.0006657852854480232, 9.795050980661082e-06, 0.0003727869474165678, 5.275681294111246e-05, -0.00035884012625313926, 4.6619448154737586e-05, -0.0007407959261156033, -0.0010137544604835289, -4.659984022476112e-05, 0.00014801779728251934, -4.817843401662481e-05, 0.00018129739846048907, -0.0005466025622905744, -0.00048371185983378913, -0.0005748110143616747, 0.0003636216331620828, 0.0002665169773948937, 2.0492000060303196e-05, 0.00019260930104168108, 7.674621422821333e-05, 0.0004986058291437184, 0.0001498843613245343, -0.00012779850355911873, 0.0003038913814589238, -0.0006811458773337883, 3.913287693208041e-05, -0.00016936338668596757, -0.00014579839170182187, 0.0001575722411672409, 0.0004884190656463358, -0.0006065445060952359, -0.00026416635995212847, 0.00028439523282855353, 9.529817294633826e-05, 2.494872918773778e-05, -0.00038356581512128817, -0.0005337683334323723, 0.0001637253970215616, 0.0012533001443641536, -0.00016010492646382365, -0.00016149164423258507, 0.0005208388658357545, 0.0001252992372531335, 0.0006496340048272161, -0.0005536788270146232, 0.0008469168067434594, -0.0008258408987115283, 6.334965492949464e-05, 5.282202773790621e-05, 0.0006509736097856043, 0.0001472137715329705, 0.00016916998948585265, -3.341735186737089e-05, -0.0005585757470241634, 0.000410768749386861, 0.0005416910239923119, -0.0004271454492238149, 0.0006011727175883175, 0.0001438023533282555, 6.847895712205013e-05, 0.0002264703298803595, 0.0005007689917883479, 0.00046590115194397575, -0.00037578667498970386, -0.00033878090209593127, 0.0008937495291824286, 6.212596842555372e-05, 0.0002872908227424976, 0.0005141142257426893, -0.0006156724737739759, -0.000524935545446643, 0.0001636315210069486, 0.00032811165136141713, -0.0004648590686103036, -0.0002852128662916849, 1.998505227140648e-05, -4.203421921855695e-05, -0.0004563710990188553, -9.995554694544724e-05], [-0.0001665894582306186, 0.0005876852410941849, -0.00018796856375027509, -0.0007108285660508251, 0.0006663983823590626, -0.0005481814064560603, 0.0008603101386539785, 0.000699781358023331, 0.0006783144901222439, 0.0001566273582002929, 0.00045950880434016296, 0.0002359160363080759, 0.00010085960284192305, -0.00028800573512049934, 0.00024313235045231708, -0.0008105303304291382, 0.0006651343910921641, 0.00023831092614210716, 0.00018061002348975324, -0.0003948525214835885, -0.00012086821481673525, 0.0004936238738243807, 7.839992285659075e-05, 0.0011533735338348586, -0.00016750921951478296, -0.0004559838467821666, -4.222794602160884e-05, -0.0006845778968026357, 0.0008093389366351076, 0.00017226224937040598, 0.00040781678130447167, 0.0001938057391879649, 0.00010478204570332615, -0.0002908353331551537, -0.0003838357309706225, -0.00017188389641322583, -0.00029452427369062653, 0.00024348009000340427, 0.00026293177054918283, 0.0002504266527173944, 9.742507246708496e-05, 0.00013181825707973154, -0.00028349987544240655, 6.137927141480111e-06, -0.0003821945613840956, -3.517816569914064e-05, -0.00010231055892329883, 0.00015326676355803052, -0.00012543554302713405, 0.0008442808973051762, -0.0003383295355714071, -0.0006132920963996404, 0.0006502560295153225, -0.00023452826801402985, 0.001178239336136153, 0.0002428442377700005, 0.0005223922648788217, -0.00019135810910769584, 0.00025050054595877387, -0.00037114127766639174, -9.196690857410517e-05, -3.16476244078759e-05, -7.547438163731995e-05, -9.882111879631325e-05, 0.0008151524844372739, -0.00023447759644854642, 0.00033308174730229133, 0.0001888559695523256, -0.00046705338838282833, 0.00025151873630259593, 0.0006497443551673756, 0.0004541203902272649, -0.0003131283371508933, -0.00023800414483100314, -0.00017504903697312558, -0.00031222364060554223, -0.0007102971258703835, -5.396487520862913e-05, -0.00012981868639545712, 1.1188669875144196e-05, -7.213296328027246e-05, -0.0007272455994982619, -0.0008315373933408844, -0.0012440448685704176, 0.00013489070292216818, 0.0002059022497888659, -0.0007752264185536888, 6.021366234043926e-05, 0.0004349410050574326, -0.0006935594133148671, -0.00024685347886442007, 0.0007017965498119917, 0.00013506240628386777, -7.149752147370619e-05, 0.0006636278461060813, 4.027927633117208e-05, -0.0006189802519795365, -0.00022330624003998636, -0.0002966230563988008, 0.0005292190733457546], [-0.0002574002136196788, 0.0011894067898304687, -0.0003567132329128763, 5.7887783428125856e-05, -0.0007556709642212874, 0.00011962842341515148, -0.0002653641326659443, 0.0002042261226186728, 0.0010196566248164448, -2.649838609058576e-05, 0.0001497531779332234, -0.0004576617391671986, -0.00047843555838792106, -0.0008825827433650794, 0.00029617248791441176, -0.00023760097102755196, 1.257152673997595e-05, -0.0006900170851474796, -0.0007698029027927439, 0.0003355336810490719, -9.371691867767128e-05, 0.0004873537140805675, -1.2932469677754985e-05, -0.00035947842920845663, 0.0003840707395407477, -0.0003838087414727354, 0.0004333830285180092, -0.0007860998806583218, 0.0005235693283278187, 0.0007488905755953821, 3.618621240015804e-05, 0.0004789386496204574, 2.5650879374817962e-05, -7.442632328430628e-05, 0.00019332323919440996, 0.0003328328871991164, 7.24831052287343e-05, -0.0001849241100540084, 0.00022239761066481856, 0.0002822854986738467, 9.692497983526388e-05, 0.00014334858326483572, 5.63147333880898e-05, 0.00013845903365132875, 0.00010962566169657584, -8.311022937814725e-05, -0.0004289531388724369, -0.0006228188236165952, -0.0001640534587675355, 0.0002212009598916032, 8.913824546523154e-06, 0.0009461865200052519, -0.0005899660265269482, -9.730865731368104e-05, 0.001117576610757278, 0.0001708143299891878, 0.00010142059656543122, 0.00010620066000759782, 0.0007401051551589017, 0.0005913227163736708, -0.000761233357410855, 9.396740707658653e-05, -0.0007728450540246004, 0.00026018314779999564, -0.00012695761613450363, -0.0008044726365914355, 0.000441713301285033, -0.00018342504190248116, 0.0011235105849480246, 0.00048631625590406377, -0.0005822532375521417, -0.0003663373070460668, 0.00011693183408899877, -0.00019697719872245633, 0.00017004645670487344, -0.0009676190080477062, 0.0004324777746278601, 0.00017313886526809728, 0.0002081371018465722, -0.001154179862152127, 0.00012085780036736956, -0.00023695137502307065, -6.175501040133666e-05, -0.00044069702132845304, 0.0006695599506047669, -0.0007211900168961642, 0.0008855120560503338, -0.0002884738194481292, -0.00013561056557770152, -0.0002884802429196986, -0.0012663158168852622, 0.0004964458203648349, -0.00016617853315250197, -0.0012015272059368233, -0.00036686884872413645, -0.0001593431342751777, -0.00033659246057568336, 9.360695050263749e-05, -0.0002028324957159166, -0.0010373665602188915], [-0.00013563337755906078, 3.0959901431709126e-06, -0.00038414831770939, 0.0004121702071997961, -0.0003287522675827786, -0.00012308093028964737, 0.000585377960269794, 8.822383237546354e-05, 0.00021396511402676493, 0.0004612333178812103, 0.00011456287553681126, 0.0005526259818949888, -0.00045535070216603423, -6.738260547523448e-05, -0.0003789119246143226, -0.0005041757019540242, 0.00022965275088449486, 0.0004326229884839902, -0.0005711288867750327, -0.0009661393326519667, 0.00015017011798859603, 0.0005282916533820304, 0.0007005471661275229, -0.0004695721298784612, -0.00012251460414241868, 4.5030233161405996e-05, -0.0003827681605290589, -0.00031457236634438706, 0.0001754971346940992, -0.00011905978094455905, -0.0005389981397793595, -8.731561476165166e-05, 0.00012133446007560343, 0.00015292232569562162, -0.0006305105487996513, 0.0006606081727325814, 0.00023455152668512715, -3.138104826641295e-05, 0.0002850746757412564, 7.787147306784148e-06, -0.00046059010305581375, -0.0007423821286829471, -0.0002452468310374767, 0.00041764672261491894, -0.0005884567979686153, -0.0005919449686057788, 0.00015534223609690477, -0.00031369362275921885, 0.0001716776519064975, 0.0002504931477082402, 0.0006439009710491912, -0.0006447933806547182, -0.00036856191692957773, 0.0006113070925103603, -0.001716620109766012, -8.045319855234261e-05, -0.00019221339373747738, 0.0005380707128636705, 6.62583859946997e-05, -0.0002538801462953182, -0.0006641324901715305, -0.001330609965015582, -0.0005944432607373258, -0.0005141577355298384, 0.000469387290346747, -0.0002556934112251359, 0.000984546850103391, 0.00038897065051727794, 0.00020150403645820042, -0.00019502756735219305, -0.0006649534755988019, -0.00018843342772423876, -0.0003076150259750958, 0.00040945892854985124, 0.0005735010968155315, 0.0004557419553542915, -0.0003176145875420366, -0.00036770725930712416, -0.00014276921309161675, -0.0007013240850800694, 6.198729447609652e-05, -0.0009165500640674131, -0.00036225886341940776, 0.0008078197477398669, -0.0005748109435977413, -4.979938871093096e-05, 0.0005492554016247272, -7.74280433882179e-05, -0.0006154355335236559, 9.626074866783922e-05, 0.0003047799199938263, -0.0001570389593512797, -0.0001218882161498894, -4.7398906731600416e-05, 6.330310126439504e-05, -0.0002954006905118283, 0.0003788247451884641, 0.0009928337758330584, -0.00020211266926643194, -7.551372496366762e-05], [-8.004865099597235e-06, 0.0007638796439641297, 8.171031226469707e-05, 0.00043637834727523923, 0.0007367738671796447, 0.00013963919552143782, 0.000620450579934196, -0.0003170193605426864, -0.00018521095017604722, -0.0010402647983250518, -7.089405957601565e-05, -9.260126701672805e-05, 0.0001989703041348349, 0.00032661674695788303, 0.0001286249445802299, -0.00033570050183054394, -0.000302250480777251, 0.00023480522891638082, 3.687435993995722e-05, -0.0004830907819746832, 0.00014804013440711106, -0.00047464579490566293, -0.0009193762141671065, -0.0005732781602644416, -0.000459776598191251, -0.0005360215884598419, 0.0005087206778291632, -0.00010378611348381276, 5.562985330530749e-05, 4.9262879289266286e-05, -0.0004024003699890772, 8.829315294034326e-06, 0.00025297587492169635, 0.00017040261562359586, 0.000865719331447536, 9.413630863092639e-05, 0.0002691653840184248, -0.00018097055550812864, -0.0002880945302383529, -0.0007488833426184409, 2.1408634764430657e-05, -0.0005330254004326246, -9.239218160993574e-05, -7.859319800604367e-05, 0.0003329209385583781, -0.00019857523645724326, 0.0008788739630724581, 0.00019302211574402314, 6.714651387108155e-05, -0.00029980669331073576, -0.0005756526802512067, -0.00010395692115315152, -1.8715185615617253e-05, 4.2314528163911635e-05, -0.0008033100410283225, 0.0008253721879182835, -0.000597285678017014, 6.150313814331736e-06, -0.0006036800155780904, 0.00039638726616701193, -9.147583316811599e-05, -8.26061868720989e-05, 0.00011382384535804809, 0.0005536595849768834, -0.0007127986825669176, 0.0004632271594238182, 0.00011062668409108678, 0.00015638951565865032, 0.00021389920723448522, -0.0003266158688132873, 0.00041502094951439, -0.000287184456127675, -0.0006430715560938138, -0.00023450819408138798, 0.00020505937214980254, -0.0003416085090676719, 0.00012408700133685475, 0.0008136168763511974, -0.0005236031361045647, 0.0002937432674183316, -9.979796694208931e-05, 0.00021947242416585282, 0.0002572330858125254, 0.0002290920313416987, -0.00024205449578769216, -0.00029107862918396313, -0.0005981058926378017, 0.0003119855891584333, -0.00028148792618682116, -0.0005529187147019267, -0.0004896503443395057, -3.3513688681528386e-05, 0.00027947952162128963, 2.0855867481275767e-05, -3.163507235781332e-05, -0.00022108282424556765, -0.0010759583188568005, -0.0005593078098743027, 0.00017587866881426764, 0.0004757548905036881], [0.0003982169931845954, 0.0009566983559499121, -1.450343594191881e-05, 0.0005433609289944387, -0.0010072653726771014, 0.0003949274992674405, -0.00018398123449719353, -3.5144630098318534e-05, -0.00015448354334770075, 0.0002497534120344908, -0.0003237721486242267, 0.0005045747156310708, 0.00044220432510309405, -0.00030018819977347896, -0.000408959652027049, 0.0008834768330731647, -1.0715224074092243e-05, -0.0006533820571994571, 1.674012463721447e-06, -0.00013376841069526212, -0.0010100775867645394, -5.9090056858808215e-05, -0.0006735157214761079, 0.00024092927907969715, 0.00030652922309591836, -0.0006447431663405607, -0.00011222971735119327, -0.0006387877519915069, -0.0002474652347383843, -0.0006126534905991584, -0.0010577387143193373, 0.0002461599679645916, -0.00041336330776326657, 0.00028759754624380014, 0.00023028394764557328, 0.0004807022245265145, 7.607089980425294e-05, -0.0002935842992343063, 0.0007758771670138984, -0.0001810806648761227, 4.895756164878019e-06, -0.00010854931528483468, -0.0010876962311805259, -0.00010495450152798773, -0.00027721685493125713, 4.463033374409048e-05, -0.00015595272661425298, 0.00015686244589824171, -4.838913141348649e-05, -0.00010659318146590723, 3.884310566842978e-05, -0.00039718159394525683, 0.00030163484427371215, -0.00045745096995387187, 0.00016356552311981985, -0.00019591964718531377, -0.0006974456376025566, -0.00031283637510031836, 0.00012766345175615023, 0.001155173000828121, 0.001200866800820076, 0.00049823510455822, 3.130782459395598e-05, 0.00022715692600751544, -0.0003655905397899969, 0.0007213103628038164, -0.00043836197369518325, 0.0002847724194174188, 0.00020431675539049214, 0.0002503634328494731, -0.0001548639011981108, -0.0005198415028332247, 0.0002460980834807693, -0.000639155452141769, -0.00026194681017832996, 0.00015523400983805894, 0.0001400222561533952, 0.000992081362477265, -0.00022086911896797051, -0.0006004789804932549, -0.00011309293584564275, 0.00018205189044383132, 0.00035780521649922013, -0.00013076127631411107, -0.0004416635523739295, 0.00035307510257530036, 0.00045807827014496895, -0.00012555179939322694, 0.0003507223011668669, 0.0008064114075469099, 0.001149951725353172, 0.0003397526752075933, 0.0006063195464842425, -0.00013222597197585267, -0.0009264419913375514, 8.638074345633816e-05, -0.0001917912519234684, -0.00023716847039430747, 0.00047858244205098676, 2.8101656692808576e-06], [0.00017644035886925878, 0.0009898401006409874, 0.0008905716027129958, -0.0008998612365280454, 6.410082122026929e-05, -0.0005817463421446872, -0.0003097664763668125, 0.00011401590642070393, 7.468738120140718e-05, 0.00012673693570920488, -1.540256471763391e-05, -0.0004968011441003634, 0.00013943208712948626, 0.00024155369285952142, 0.00012388005516367757, 5.4676737371861056e-05, 0.0004057792938046755, 4.320779939073018e-05, -0.0006352966676533865, 6.705637187195896e-05, 0.0005689774884398422, 0.0006349462529093852, 7.872308401049855e-05, 0.00023856614434879312, -0.0010509208682817734, -0.0005469245198126542, -0.0009556348098502072, 0.00011932001976800311, -0.000477222143169803, -0.0001317670635781911, 0.0004256302142971425, -0.00026325793773946375, 0.0002134334260610246, 6.864133205892012e-05, 0.00014089718717202814, -0.00046180902253385893, 0.0004670219711510709, 2.2629072698855273e-05, -6.849089464792966e-05, -0.00011898177359136305, -0.0006618793317810716, -6.434304035386506e-05, -0.0001649102308311149, -0.00026220047139089136, 0.00018789073254012233, -0.0004085797373567707, -0.0007428612680494143, -0.0004915595633057594, 1.0680470040400829e-05, -0.0003336198526756823, -0.0003746187747665575, 0.00012910325663388533, -6.0919602911791066e-05, 0.00017849746291377275, -6.520870751360456e-05, -0.00010941568468482497, 0.00042539160219210294, -0.0004299589097828088, -0.00031462538601493813, 0.0004168632704819315, 0.0004557655820877206, 0.0004950409413791339, 0.00023841573255464914, 0.000285021121591431, 0.00048085655861264984, 0.0003636816396120233, 0.0014534260754581491, 0.00015973186160158078, -0.00019325862291637855, 0.00037012129854772376, 0.0005160219687548519, -0.0006524792437920318, 0.00014027324602846282, -0.00028856242553790024, -0.0006443977601700982, -0.0004576182968091291, -0.0002932431604226323, -9.667993852030157e-05, -0.00031490846508264755, -0.00047970758747752735, -0.0005279219541199585, -0.00038448705552944485, -0.0005202251010217627, 2.3779845259176837e-05, 0.0010088230372095354, 0.00028408480374699435, 0.00035020775010400696, -0.00015553410985193146, 0.0011932919210802778, -0.000976971929299147, 0.0010111690325075903, -0.0004331512335786296, -0.00046813365321178157, -0.00019595348123892372, -4.3070255356868916e-05, -0.0003255057635775116, -0.0004366916523979258, -0.00020067301988474498, 0.000378715421288358, 3.7122129908633253e-06], [0.00025429961896886725, 0.0008003861563872705, 0.00022148363010657536, 0.0003007811098616407, 0.0009378095911176924, 0.00041392253123307283, 5.2840467996012056e-05, 0.000344084491617859, -0.00029585163980644813, 0.00045469631265598144, -0.0003724524111776044, -0.0003183243718652782, 0.0005752219638933905, 0.0006144139043457573, -0.0010381868713043177, 0.000627949215197513, -0.0002834145527099761, 0.00039933374462464025, 0.00025520493063007943, -0.0004926704329056064, 9.111569564258731e-05, 0.00020221941579897436, 1.8773327992124994e-05, -0.0010650962202459436, 0.0001672251243248908, 0.0006502417733919237, -0.0006095680168357385, 0.0001471680909049227, -0.00042262904354915505, -0.0007802734350189631, -1.2053454974381718e-05, 0.0008652927732920685, 0.00039055921715819487, -0.0005085925946677054, -0.0003969099568370707, 0.00013446790343005306, -0.0007151951519110557, 0.00027931576763394586, 0.00019445476006037422, -0.0001370771591097117, 1.842402382381632e-05, 0.000708120904831012, 0.00011326137684302472, -0.000589715961224682, -0.00031888454754722584, 0.0006193709353595557, 0.00042112741252633913, 0.0007054017242474618, -0.0005835682984955256, -0.00041941466630827446, 0.000808168345846092, 0.0010970935277076937, 0.0007893583537263877, 0.0001555103614401796, 0.000703200129182526, -0.00014877067963763396, -0.0003498975640417731, 0.0005330814345787937, -2.602585227304136e-06, 9.10609406870732e-05, 8.559937069447371e-05, 8.536017753150462e-05, -4.890743538525565e-05, -0.00019563421019854442, 0.0002231279184689558, 0.0009870252993772564, -0.0009755507076269565, -0.0001834648935256372, -0.0005905944971561668, -0.0008418781814408604, 0.0006612192013005539, 0.000521406308432871, -0.00012465748834455563, -0.00026530562159114826, 0.0004689617201969227, 0.00027539832474551113, 2.0243462789528317e-05, -0.00041286136350286804, 0.0001185816300947139, -0.0003982749239403079, -0.00015841845275453096, -0.00022766670949670456, 0.00040172105132678767, 0.0012120789229445302, 0.0001491606560944038, 0.00032425786961214667, 0.0007185948221972205, -0.00016372014616417303, 0.000388697383233377, -0.00032141789953681147, 0.000645529681440476, -0.0001407210832665415, -0.0004355124666399768, -0.0011608515627733796, -4.561260161848382e-06, 6.861010568642773e-05, -4.555641088882411e-05, 0.00020341629946652205, -0.0008937012518930893, 0.0002919816981177476], [-0.0006351295338337882, -0.000277559561310016, 0.00010157707542150718, 0.00043632205820674205, 6.0082445925928895e-06, 0.0005611591791077227, -0.0009383696865537141, 0.0005946415949812987, -7.864277677684263e-05, -0.00010385551565957907, -0.00010708806783460602, 0.0003878816230356169, 0.00018333823280519137, 9.655111731794842e-05, 0.00012552310364847457, 0.00014718347174437816, -0.00032325655850846805, -0.0009736193984944421, 9.620871949684676e-07, -0.0006871995230720533, 0.0001445575878227745, -0.0006677081996801456, -5.816947289564162e-05, -0.00025542855159078, -0.0010639937826897765, 0.0007512689336451094, 0.0001843076207202514, -0.0007684412297679585, 0.0003132242881022326, 0.00048502784946860794, 0.0004791027222739222, -0.0003889770252809061, -0.00014951046860109087, -0.00025500206317426974, 5.9533466075665327e-05, -2.2199790635350397e-06, -0.00040543357642876905, -0.0005572907314773469, -5.423887108541251e-05, -0.0002476248179156022, 0.00037564726428062327, -0.0005384110465640493, -0.00020989678910279504, -0.0004951831309157889, 0.00047640830398761654, -0.0009455879968980349, -0.00021995436248016068, 0.00033065405266369057, 0.0003890672340241071, 5.665847512505268e-05, -0.0008953290610612449, -0.0005119027731885025, 0.00041312880682654895, -5.7871543620652104e-05, 0.0005248717703911233, -0.0009171167545833609, -0.0001624723269680173, -0.0006348376952288099, 0.00021769072759978458, -0.001940526174226389, 0.0007003779590030263, 0.00039498634197145284, -0.00019219053715387082, 3.4999674342868913e-05, -0.001182010830215404, -0.00010272593133645551, -4.736499364782463e-05, -0.0003506732569873295, 0.0007026187012938304, -0.0006575513657653552, 6.617037105045617e-05, -0.00018549364999689182, -0.00035852478290915643, 0.00031394806171267754, -7.932069084603155e-05, 8.091376164318236e-05, 0.0003166543768771489, -0.00038970656630484105, -0.00021577020434135195, -0.00016687705412358895, -0.0003169285186789137, -0.0005328382554919932, 0.0006148600962267987, -0.0004483351407677063, -0.0005090794038000709, -7.602244722402081e-05, 0.0003490492910934066, -0.0007909027420868185, 0.00044614418672776876, -2.404764579981836e-05, -9.756654823078737e-05, -0.0006444151773468768, -0.00034091915746407473, 0.0004105705662024986, 0.00022576608978856728, -0.0003657957297797422, 3.3339695507120846e-06, -0.0005392019240321322, 0.0005595832079454398, -0.0005084867133623102], [1.3432330353590084e-05, 0.00020162480938828474, -3.399439887691781e-05, 0.00027650459741603977, 0.00030397303252742555, 0.0005031411940365918, -0.00011581056467812306, -0.0010263849928324156, 0.00023975454260654626, -0.00014276767809766206, 0.0006678164865525562, -0.00014924779646463315, -0.0007510066413437541, 0.0007472120340177649, -0.0007687917776325228, 0.00016146718673790993, -0.00019738928675352136, 2.9897650077507967e-05, -4.922149224052743e-05, 0.000525375585807136, -5.125430479525214e-05, -0.00036293539005192326, -0.00011808893666619098, -5.136959680402449e-07, -0.0006649077819128368, 3.2466268688903135e-05, -0.0003798821257251001, -0.00010657721280617373, -0.00014756563271949775, 0.0008043762371602305, -1.1616817816039875e-05, 0.00053178700978078, -2.467509595076537e-06, 0.0003307135348348769, -0.0005988610300817925, -0.0013715305342579531, 0.0002633333092770498, -0.00022976923276933322, 9.524482004120608e-05, -0.00017431739970621252, -0.00013025947572455215, 0.0003542881343349892, -0.0005385157897730311, 0.00043466840362853525, -0.0005742036792358962, 8.247741310797764e-05, -1.6360091869993142e-05, -0.00015036173080025726, -0.0002616467835305743, -0.0002865283796330886, 0.0003294904253820813, 0.0003689265350066927, -0.0010441553460706656, 0.000770057687572071, 0.0005731708619732152, 0.0013348788752000134, 0.00033389052783412655, 0.0003840179293465427, 0.0009990762437770443, -0.0005566159480671448, 0.0005279076420417172, 0.0012420991627168558, -7.997126718700761e-05, -0.0010131977463424284, -0.00020363875876466318, -0.0003636002052935406, -8.010986868775197e-05, -0.000220104888461414, 0.0006200979624214785, 0.000526297823523485, -0.0006461611802306883, -0.0005168979224881545, 7.56455508613321e-05, -0.00029105650562805417, 0.0005206319984829967, 0.00014288396223270387, -0.0009038524409024137, 0.00048131739159444815, 0.0007251554878755351, 0.0003437274126657466, -0.00018773084986824129, -0.00013551149422946817, -0.00023860540772222916, -5.591241889924231e-05, 9.450061293222046e-05, -0.0003712846823785927, 0.00020357790385295145, -0.0008039268717523395, -0.00021829459115145218, 0.000289913504031372, 0.00016707754976727165, 0.00035995984459878775, -0.00023492990689576154, -0.00021326218744914524, 0.00013683388600344102, -0.0006306802380941579, -0.00010265089646059323, -0.000794204590791665, 0.00032429934932216354, 0.000264780055290618], [1.2382571226487275e-05, 7.483310589934956e-05, 1.7098925090574248e-05, -9.840416898448453e-05, -0.0004982602391099715, -0.0001331565637116592, -2.095079369842741e-05, -9.169250158715936e-05, 0.0005142116239278078, -6.478734483466245e-05, 0.00015097890453289977, -0.00025342062341568325, -5.507305089626538e-05, -0.0005892279047624276, -0.00046133571994227745, 0.0002643912515292668, 3.5298837239220207e-05, -0.00036700708761772094, -7.84712121246832e-05, 0.0005708444986215802, 0.0004444790535890221, 0.00030617064557742065, -0.0009694860461971207, 0.0012631782563466724, -0.00040266732482926554, -0.00040395780830460135, -0.00017460168173995263, 0.00036440336077397863, -7.485279445999147e-05, 0.000177730059847937, 2.6529787595397398e-05, 7.834322286752671e-05, 0.0005386417686221674, 4.027395089122967e-05, -0.00036373178445000626, 0.00027882146504130907, 0.00024216928814769817, -0.0004694248109397168, -1.18362422406984e-05, 0.0003043108288306978, 0.0005557072890543626, -0.000241456951266215, -0.000577420341995672, -0.00026685678594376, -0.0006436070885050198, -0.0002593846005917127, 0.0002544480333405657, 0.000338891931744893, 0.001061638806585127, 3.895939739577842e-05, 0.0007021883759933483, 0.00027966745846373756, -1.8191345426857022e-05, -0.00022550664829696214, 0.00032484314068536983, -0.0006094780713693397, -0.0006405971648402198, -0.00010729308188057779, 0.00039758414148505054, 0.00031092166633642703, -0.00033741704555594325, -0.00017636081006360316, -0.0001199449904570529, 0.00014769733431050036, 0.0008945851209840897, 0.00019995755378772055, 1.4572914903223723e-05, 0.000569666819692925, 0.0004532867227704386, -2.438976895361867e-05, -0.0005245748139844023, -0.00041871939667026127, 0.0001567119118468803, 0.0006613482881745959, 9.042680867712729e-05, 0.00017557028352032018, 0.00048224657508343105, -6.10828747005314e-05, -0.00046579700536199454, 0.0003124638497495468, 0.00012385626079216327, 3.213005748608729e-05, -6.54345333148068e-06, -0.00020168540863423393, 0.0005497755464407901, 0.00047600186032993, 0.0005621477566295834, -0.000632958760174628, -0.00074424955776804, 0.0005983380738610436, -0.00015714527421028222, 0.0005289570629366735, -0.0006435883410317849, -0.00047807751940027446, -0.0003998136981561593, 0.0005656271755267429, 0.00021206497554402063, -0.00021008662500753862, -0.00012467788328519681, -0.0001943504141775425], [0.00023396837425557844, 7.391008040632295e-05, 3.949989333350525e-05, -0.0006000810878787151, 0.00026257219304534504, -0.00011232028049322268, -0.0006260025410413778, -0.0008558624755812561, 0.00031356228391029033, -0.0010474085705742262, 0.0007559455738086774, -0.00019064306660660234, 0.00046351414785666283, 0.0002599761700936974, 0.00026512139955612706, -0.0003776055296496577, 0.00019157056199098262, -0.00012348281923247288, 0.00010149483124431415, -0.00016797839436687688, 0.00048400766673168484, 0.0010546706011708548, 0.0006016816555751134, 0.00023013888966476418, 0.0004384307606464945, -3.4498551220129356e-05, 0.00029316002587499685, -0.0006684454698530399, -0.0004112800700326075, 0.0004708454052585055, -0.0004784590496452782, -0.0007001644464452892, 3.3579765617204134e-05, -0.0005159431674945021, 0.00025199809347121636, 0.0005747355514111322, -9.9691069264418e-05, 0.00040254333511951357, -0.0011081485775229646, 0.0005106393618148841, 2.145439831283214e-05, -0.0003240375870578187, 0.0006934819692524789, -0.0003125409653949951, -0.00011230813202278395, 0.00023284767547901037, 0.00029302404408629285, 0.000663916883194056, 0.0001314931161669419, -0.0003128469421625195, 0.0007384437138711416, -0.0004110555323678397, -0.0004858600291979824, -9.112463160276402e-05, 0.0005542920170412318, 0.00036108854192046117, 0.00023854853274878781, 0.00047401413435626296, 0.00012822986807461273, -0.0006598061291184947, -0.0002784526982550146, 7.588270535802224e-05, -0.0003589013410472708, 0.00018633652716543918, 0.00027178455293371223, 0.0005939366697991577, -0.0005588974841765242, -0.00019230276214744484, -0.0008293429269138323, -0.0002632403409937905, 0.00019838454269101676, 0.0002356228690587341, -0.00027039217489728854, -0.0011710884110796068, -0.00017157010786727863, 0.00020064073263001672, 0.00026450365771971016, -0.00020482266108547826, -0.0003393912991783056, -0.0002493874357165964, 0.0006122513187149294, -0.0006904121882571121, 1.3301746298929105e-06, 0.00012706769214539573, -0.00042494667222598906, 0.0006629485465419509, -0.0005646387023286534, 0.00028959937727765245, 0.00018041056935266776, -0.00021677584603656602, -4.6123431578886776e-05, -0.00017770380313208146, 0.0008755995054386028, 0.00030788354144031484, -0.00024031777698644327, 0.0001026426614286496, -0.00011651642665537067, -0.00028412147175473215, 8.869632283368827e-05, 0.00014407107754202785], [0.0007137029462977246, -1.8292034743858724e-05, -0.0006338107711220266, -0.00024398809041394008, 3.3161019619155486e-05, 0.0004366861516250525, -0.00022574373385967082, -0.00039607119164438435, 0.0003647588425637085, -0.0006845200240098897, 0.00038733975541417175, 0.0006839000383412927, -7.715276651671548e-05, -0.0004886202570279566, 9.35361272950315e-05, -0.00015263576444274275, 0.00047770016680984476, -8.839142714204045e-05, 0.0003429534403618839, -6.742251152725134e-05, -0.0006890753516586599, 0.0011632178183727325, -0.0002406002446399673, -7.268012214556409e-05, 0.0007167125697749975, -0.0010934831857834142, -0.0003357285502908055, -9.829946357330863e-05, 0.0008490011210267601, 0.0002461484551568402, 0.00024225103152737204, -0.00021587979328078545, 0.0003585257396162007, 3.806389753871995e-05, 0.000745626813837819, -0.00046252952212583214, 6.881529191882796e-05, 0.0001225911584098297, 0.0005597679796178257, 0.0006541915910197242, -8.287223445159741e-05, 0.00010063614155959821, 2.9168029550075305e-07, -0.0006229015535775276, 0.0001323124698112982, 0.0004927141681516835, -0.0003218828877936735, -9.530816285397583e-06, -0.00018262784015222113, -3.5891663739500074e-05, -4.55648881825056e-05, -0.0003064917844058777, -0.00016219800660232286, 3.72380986158386e-05, 0.00033727676948066285, -0.00033830559938772994, 0.00041327335174128586, 0.00013452782533123942, 0.0002483457299888714, -9.743388344657936e-05, 0.00011141573977946451, 0.0007965549076514846, -9.260366891503292e-05, 0.0002398391905042654, 0.00016641673704382329, -0.00011581683758526195, 1.2989165102890412e-05, 0.0003337607057000409, -0.000633344272265702, -0.00019285011709822434, 0.0008172781460055559, 8.318977330550347e-06, 0.00037902339231322605, 0.00029805324034338625, 0.0007209557543350028, 0.00011286378679264543, 0.000585321800172214, -9.529873192358479e-05, 0.000636039143058635, 0.00020798913725511407, -7.450799389997804e-05, -7.762683507502999e-05, 0.001136848192293345, 0.0007661647475832781, 0.00021538739108110366, -0.00033123402878227585, 0.00026242915612207865, 0.0004119167086512115, -9.988919418128476e-05, 8.467051981910875e-05, 0.0006487033424785503, 0.0010006354908489979, -0.0003016855687031645, -8.277253313383307e-05, -0.000173624385790583, -0.00021759301043155043, 0.0003381934786576953, 0.0003641570780252381, -0.00013243280392119606, 0.00015225286791154436], [-0.00015971739974653498, -0.00010805909203497203, -4.820147682788704e-05, 0.0005727141351621835, -7.087183202612339e-05, 0.0005231856990122564, -0.0005099580836589973, 0.0005818085198081882, -0.00021082555891362056, -0.00040344667275482734, -0.0005684127392648917, 0.00035161552090999526, 0.0003010722445976326, 0.0007616627508860402, -0.00036837770603549225, 0.0005699146026496019, 0.00027560921979115236, -0.000468233335109749, -2.5273473609686e-05, 8.17242098911402e-05, -0.00023715889154453165, 0.0005877661397282542, 3.7418273394940353e-05, 0.0006752822479739768, -0.0015507163426286608, -0.0005584958506550679, 0.0003990688649724265, 0.00045644476322945866, 0.00046408861194502924, -0.00017270536170826178, 0.0007579014932436665, -0.0006062734576589224, -4.238700591457705e-05, -0.0001035994724849393, 0.0003799387973347605, -0.0008517811443528975, 0.00027806529437677494, 0.00043722705131146814, -0.0015583730565566537, 0.0008229274152938065, -0.0004184097254605279, -0.0004277334564508905, 0.0003441616573508573, 0.0005290223389570179, 0.0002982328370922515, -0.0001751825897213721, 0.00011269380575296847, -9.206969117120408e-05, -0.00044519039371872595, 0.00022925066618096972, -7.152832360026534e-05, 0.000726514410538866, -7.279555306434176e-05, 0.0003589015425179032, 1.7495191096671762e-05, -5.696115053132886e-06, 0.0014791867924953365, 0.00034975133419029895, 0.0007464621548638546, 4.540598898722342e-05, -0.000637406713183949, 0.00011238495825810259, -0.0004407900941616987, 0.0004063484798231207, 6.593076441500485e-05, 0.0006698990696575268, 0.0002857080578597111, 0.00032800758336317965, -0.000179068980877156, -0.0005892997477126393, -0.0001777233256237804, -0.0004252674275429498, 7.493165214038876e-05, -0.0004515954623474877, -0.0002457723603499117, 0.00045083618229053274, -0.0007630704450340161, 0.0002873275299034497, 0.00046789206377444154, 0.00010665709954915788, 0.00012342241885553908, 0.0004567600498802877, -0.0002008307130499229, 0.0003076029706820273, 0.0007799471025361009, 9.442387090482531e-05, 0.000466294193270057, -7.814020898620423e-05, -0.000102116604309141, -0.0001414999822885783, 0.00032565910438718613, 0.0004884220906478835, -0.0001304546686208646, 0.0002623918215491486, -0.00070934355217712, -0.0005674692747484332, -3.803487767490155e-05, -0.0003182753618552984, 0.00011103630403976977, -0.0005072236127633572], [-0.0005195535474822217, -0.0003555661202138666, 0.0003100588253686529, -0.0003922476719078412, -0.001002832390196514, 2.497845451295804e-05, 0.00043862893536338895, -0.0007250201735677351, -6.857847834951537e-05, -0.0003380708298628063, -0.00014624644496541762, 0.0004867587898949926, 0.0005009838938960237, 0.0003203731035002847, 0.0002625282031189402, 0.00019674606461917837, -1.599429954907049e-05, -3.2452140688734114e-05, -0.00024349882692934323, -0.0005054183743320209, -0.000181483337887187, -0.0003357084347901329, -0.0015179945618852162, 0.00047079942790335494, 0.0005109653203303178, 4.6788483992878666e-05, 0.0009751282984522552, 0.000499551613394922, 0.0003853660923171064, 9.98361581537596e-05, -0.0006515606740348691, -0.00046200523711871147, 0.00039804634473346437, 0.00024505707441174637, 0.00011232525215039152, 0.0003528465188333929, 0.00017042763252131973, -0.0008191654388800419, 0.0008758255846995997, 0.0002790473064946618, 0.00014077519747834937, 0.00024964429817385565, 0.0004404059786360288, 0.00023922544899960442, 0.00010704357579150199, -0.0007432004269994628, -0.00041209553832684476, 0.00038116838659382383, -4.267483706107981e-05, 0.000542632775719028, -1.1465875239838051e-05, 5.831934676117611e-06, 0.0006377420583923775, -0.00015824313892568624, 0.0004752862636148596, -0.0003884080523122366, 0.00042819241689975683, -0.00020627932740984237, 0.000413668432087282, 0.00035340546439861613, 0.0003873211337010776, 1.616604979437084e-05, -3.70346334354986e-05, 0.0004301772242132381, 0.00025600776619450974, -0.0001550470643451728, -0.0004684461820214424, -0.00021820796131469117, 0.00011073064509576594, 0.0003873835555970169, 0.0005784367442164997, -7.498699428068386e-05, -0.0006373444794008774, 0.00031032852828833334, 0.0001031387610036194, 0.0006486737830828919, -0.0007566883666270065, -0.000949872932750933, -0.0007768328955661858, 0.0009244851986903197, -0.00030310065307063007, 0.00013768111207710035, 0.000343403933481658, 0.0009805980460062085, 0.0005536630343649464, 4.168218566857776e-05, -6.866813057089072e-05, -0.000627201890327105, 4.112658182616312e-05, 6.226999474909966e-05, 0.0002079997657088577, 0.0001479018444234654, 0.0001364061535828893, -0.000536060427323804, 4.960882514443877e-05, 0.00028291410042914465, -7.89531614477639e-05, -3.4815981142684524e-05, 0.00013831765722840177, -0.00032965150820415566], [-0.0003117145302954407, 0.00044033085399703385, 0.00020466854112074847, -0.0001818193425392094, -0.0009401956805486097, 9.65137022458283e-05, -0.0009499141557676906, 0.0004064264950586721, -0.00037809560120444615, -8.968460756655314e-05, -0.0014379739700991594, -0.0001981841963599209, 0.0001083351652596519, 0.000491529811900702, -0.00019164984710441126, -0.00043479445186833486, 0.0005746949361426712, -0.0001665208600046791, 0.00024407194171172715, 0.0005688696707296424, -0.0003453702244316775, 0.00019983937186459895, 0.00010788381560760291, -4.976294053690564e-05, -0.0002719148638059109, -0.0008576102267952463, -1.1601829228999835e-05, 0.00010752600909724794, 0.0008957075851657627, -0.0006177871275607643, 0.0005102779226290676, -0.00018386116909256624, -0.0011828276306715896, -0.0006372664888342943, 0.0009732002466721741, -0.0005866521536576396, -0.0007012090100268323, -0.00031500889000529156, 6.461853427298701e-05, -2.7051423222955988e-05, -0.0004714784750840479, -0.0002869708088897381, -0.0006714623181035001, 3.1413827671818335e-05, -6.25428438885394e-05, 0.00018235844316859194, -0.00019148452507829357, 6.772609929841794e-05, 0.00013689290156810324, -0.00045782879068131705, 0.00018554121145685244, 0.0003211354773152093, -3.196733983631871e-05, 0.0001838756240842259, -0.0004007740292619503, -6.552055964868832e-05, 0.000372083973700139, 0.00042376052332215327, 0.0005061197871388583, -0.00014044775910464221, 0.00031541311112974414, 0.0006335217984635329, -0.00036058778105620587, 0.00028336164434114607, -3.899739421836109e-05, 0.0004743234889749178, 0.0011976012257094812, -0.000233038443157581, 0.00011762829186475284, 0.0002554031299067994, 0.0001307451268265417, -0.0001891045290208608, 2.5002854004062846e-05, 4.118675046217046e-05, 3.2983673345398345e-05, 0.0005081335081640815, -0.000808383213468338, 0.0002123361650984517, -0.00040227546942847185, 0.00025125545388239416, -6.828333893603611e-05, 6.179909126510306e-05, 0.0007151494045469476, -3.9244000348704795e-05, 0.0009271235619170772, 0.00011709904000523496, 1.2401029011407208e-05, 0.0007404344997279742, 1.9002381892758595e-05, -0.00025348769210212745, 5.9911249922018915e-05, 0.00042456701427907276, -0.00024382269458598637, -8.224051979840426e-05, -0.0006728184051343762, 2.1109541042695018e-05, -0.00036570108552840257, -0.00017458879516084818, -0.0007996313585529394, 0.0002942327275440115], [0.00017998207151692506, -2.33251256603501e-05, 0.00040683482664630763, 0.00016225928347689476, 0.0001228987302837085, -0.0005779772564173564, -0.00043904848266638504, 0.0009489676651616765, 0.00022861823478510166, 0.0007238038538139105, -0.00030489513524918524, -0.0003414530442038652, -0.00044073827362998465, -0.0005552894826148468, 0.0008878817352115319, 0.0004656665187026439, -0.00039167363384505147, -7.196983783474198e-05, 1.8142620797990915e-05, 0.0011189979732831924, -0.0004949698885402925, 0.0003647158902585227, -0.0002533016374729333, -9.114899305953959e-05, 0.00010403163100643685, -0.00021375317567556411, -0.00041171618116446035, -0.000292988524269918, -0.0003731660483793373, -2.7389252283129064e-06, -2.3635810851412232e-05, -0.000517818767025849, 0.0003812115612022403, -0.0005351755029652984, -0.0007599064637437782, -0.00018930951344177372, -0.00028848969891146024, 0.0007736125300480804, -0.00015344942822376108, -0.00022994369895208233, -0.00010434509989594974, 0.0002279574426095233, 0.00029513138356030555, -5.360410280522473e-05, -2.6800531859518342e-05, -0.0003753361196067703, 8.848964694892187e-05, 0.00014870478125050737, -0.001232939033688932, 0.0001488597523721643, 0.0009571396497048039, -9.11229472262842e-05, 0.000207424609755686, -0.00030953931814459303, 0.00017762734859334364, -0.0006359140405844611, -0.0005273425414679234, 0.0002364040233505876, -0.0003209993257590872, -4.55501308459077e-05, -0.00030360852083712785, -0.0005772618112235379, 0.0007805870032667819, 0.00012200130455365167, -0.000627302993721543, 0.0005557565945335798, 0.00011987385915404787, 0.000321994730321306, 0.0002732826099564114, -0.0003523413789078844, 1.3344437256768695e-05, -0.0003055316804714888, -6.541152751689504e-05, 0.0006127660027594342, 6.829955567424501e-05, 0.0002072654211019414, 0.00015175891424467548, 0.00010313452697680318, 7.08484905390349e-05, -0.00044769268586893366, -0.0002416277081017192, -0.000718303034246093, -0.00017620827514180356, -0.0002101344238334412, -0.0005546110717458852, 0.00044473100969980733, -0.00024110370313021133, 0.0004501475735747614, 1.4363270892896423e-05, 0.00013612162993121047, -7.793173108906972e-05, 0.0003687895995198304, -0.0005434445000843243, -0.0007836402116836755, -2.7607308850813666e-06, -0.0008245439818230399, 0.0010416784934651313, 7.793117150539638e-06, -0.0010483984371791434, 0.0005399338971530833], [-0.000640169502821565, -0.0005129447236633789, 0.0002839638717596302, -1.6864973751394306e-05, 2.25006917992263e-05, 0.00023080854474386532, 0.0007810274015194494, -0.00048285933436353825, -0.000568339772011388, 0.00043540533751685977, -0.0001350881183319584, -0.0010614543209154948, 0.0004153037556334114, 0.00038821194819855436, -0.0009805310934294625, 0.00019454517200548078, 0.0010236474940004078, -0.00017930417600747168, 0.00032967048175235, 0.0007926158272185956, 0.00033150370937018377, 0.00040647032122874806, -0.00039333054320232487, 0.00070495531376338, -0.00121347332204451, -0.00012282119217212818, -0.0007243568373865853, 0.00015587857729024984, -0.0002303361974550659, 0.0001922383043180649, 0.00044300120323805046, -0.00010039573937784025, -0.00030831181163312754, -0.0003787692954204849, -0.00029699375276183345, 0.0007060056332299665, 0.0007277743922345899, 0.0002534702913334125, -0.0003026383299149592, -0.0006910722231827128, -0.0006340164097622452, -5.5109950956117756e-05, -0.0003117198607132381, -0.00012814201842032818, 0.00028715827352299736, 1.702874350229231e-05, -0.000801348801343146, 0.00016071778295005283, 0.000401853892039115, 0.0001799677241934377, 0.0004140247486445121, 0.0002158634758971392, 0.00021225576853224805, -0.0005289712505295169, -0.0009295479468833799, -0.0004265812568618085, -0.0007498918628572086, -6.770533835922215e-05, -0.0001375186734454857, 0.00016790398326221588, -0.0007283131804469579, -0.00013109317935491022, 0.0009167095954423353, -0.0009617911884980563, -0.0005302022803314973, -6.24342867416418e-05, 0.0012118260129773198, 6.99802560878236e-05, -0.0003184459621088203, 0.0006958501524091496, -6.026324256468733e-05, -0.000663327392417322, 4.1581012818442075e-05, 0.000884372036281573, -0.000579961905539807, 0.0002256608531888782, 9.042577022881026e-06, 0.00011068313530973665, -0.00018715933767821138, -4.681447045074124e-05, 0.0007522718969223354, 0.0002879201265383379, -0.00010827008111874005, -0.001174843048163087, 0.0006533880217381154, -0.0001348917075494729, -0.0005838065210199371, 0.000611747631431103, 0.0010836261337103849, 0.00023474526339071025, 2.3435713012754136e-05, -0.0007217292658779403, -5.987169858566402e-05, -0.0004744689638103393, -0.00019357129895868855, 0.0003586813302316834, -0.0005314966728510979, -0.00022912330744493054, -0.0002856385957449981, -8.642990209237943e-05], [0.00023848810032308754, 0.00031020601829434406, -0.00022965819386295712, 0.0004816050322066999, -0.00014105089344114945, 0.00013757462925597034, 0.001056389159727775, 0.0005858204561373597, -0.0005119963234168265, -0.00019676075973172106, -0.000489989918952821, 0.00039119340235003796, -0.0003171424687567375, 0.0001732098121623025, -0.0004662668427566907, -0.000713499511299581, -0.0004956709169166789, 0.00023840119546932883, 0.00012907273725490238, 0.0012422352242064721, -0.0006163249989106145, -0.0005097463690314228, 9.60113517916647e-05, -0.00036934022075401154, -0.00023540188795748648, 0.0001104609619585439, -0.0001895412418733181, 0.00035571943999328725, 0.0005236985406615428, 0.0005799334795147884, -0.000148455778203029, -3.01601850387643e-05, -0.00022295035583821054, 5.772194516564689e-05, 0.00022478742422275827, 0.0011370294216192468, 0.0002966074063938203, 0.0002559497464097396, 0.0004843858265654946, 0.00042255077166787885, -0.00036312377610240107, -0.0006114501473920974, 0.0002390500853388308, 0.0005069068246026878, -0.00019951514047141075, 0.0005645146650327078, -5.5106237828794294e-05, 7.906120973167641e-05, 9.900907367447672e-05, -0.00035740963764020354, 9.916068553738363e-05, -5.418329122601064e-05, -0.001150931945954732, -0.0004386288372398232, 0.0005546856053742034, 0.00030801787822794035, -0.00019909373461277085, -0.0004434192282081948, -0.0004461016702075922, 0.0006232907613212068, -0.0005013814275523703, 0.0003517811362591287, -0.0002832429421451099, -0.00016293966741188375, -1.6158211533217666e-05, -0.0003013276900976098, -0.0004648027283043184, 0.0006016319428688993, -0.0001349835588436967, -0.0008326475068017021, 0.00037351636362648906, -0.0002256618206784536, -0.0005892020189558452, -0.0007918622634170239, -4.103257491344331e-06, 0.00011307918430001512, 0.00024846609653881235, 0.0007442096979368076, -0.0011345344603400096, -7.447948552028118e-05, 0.00029140315620191596, 0.0006836512175531092, 0.00010997663858349692, 0.00033688119426554823, 0.0005800284549541461, -0.00025726104534560715, 0.00011315745626168765, -0.0006257842055893893, -9.512318437233079e-05, 0.00024092107818941087, -0.0005041793679051265, -0.00047119855260319805, 0.0006429609625040743, -0.0007229032273784036, 5.924122584654107e-05, 0.0004409632496421904, 0.00016205555775182523, -0.00019359775265461376, -0.00043696532150785386, -0.00041177009211990306], [-0.00019789157236822612, 0.00017645027164111063, -0.0005603107531126554, -0.00020184054773750371, 0.00012257941304379114, -0.0005733399043958894, -6.3636608007427e-05, 0.00011643271581426958, -0.00012859650435337772, -0.0005019259068484068, -0.00027250208034659454, -0.00042903230917053003, 6.33854412122602e-05, -0.0003570059564260995, -0.0010370815520234346, 0.0002548514018765382, -0.00010500770635882105, 0.000897703670882861, -0.00031473919903839375, -0.001315630677654696, 0.00021317978559086902, -0.0004210275493973262, -0.0002194188116668492, 0.00015072415642658938, 0.00021279617292912036, 0.0006149253394422745, 0.000430358760809157, -5.260613413604818e-05, -0.00016692205780795464, 0.000784828346028523, -0.00011386080650273487, 0.0002970264874079941, 0.0004930751708611101, 2.9534770261007512e-05, 0.0002978955697874056, 0.00019955527752337266, -0.00014293985577721558, -8.973506121084495e-05, -7.869386147831058e-05, 0.0003643281128799733, -0.00011087554426847042, -0.00010937652082834964, -0.00011899132718584524, -0.00018324130243734665, 0.0002935924247528677, 0.0007290896966410834, -0.00010179185595794119, 5.203325238403573e-05, 4.528539715402364e-06, 4.250473695472504e-05, 0.00013572396130713058, 0.00045369931011293523, 0.0004288778992468271, -0.000315433402454258, 0.0005537129602024487, -0.0002814054633148571, 4.917250937248459e-05, -0.00012562747412773253, 0.0007030240648691397, -0.0001823541844274486, -6.555859987123598e-05, -0.0004487956004028233, 0.00023468734503303374, -0.00023291739090472351, -0.00047134718607559455, 0.0002472525677893336, 0.0008866175385191558, -2.069751543185419e-05, -0.00021808473839985762, -0.0005942876830838413, 0.0003206878320200692, 0.0010905922056902682, 0.0005245271324711999, 0.0002958252697879784, 0.0003991591823004616, 0.0005173406135184956, 0.00023753303661811894, 0.00010378470148659457, -3.721572243507367e-05, 0.00015664057713531414, 4.985872947985388e-05, -0.0002892408752532172, -0.0003541122264042915, -4.650083124713221e-05, 0.0004704965090254691, 0.0002626649009468813, 0.0001829606288199464, -0.0007471170007598525, -0.0003937994656281466, -0.0006021612950573381, -0.0005739923532448041, 0.0007176903251709288, -0.00010045249284685035, 0.00013187542797095858, -8.582276641939075e-05, 0.0003692699166035015, -0.0002115457521147546, -0.0008199357274258729, -0.0002340821814749958, -0.00031819562987605936], [0.0005340066588770434, -7.725153638775323e-05, -1.1792660051610446e-05, -0.0002217503541368423, -0.0002004345623148632, 0.0003908891180367884, 0.00027861424274049887, -0.00026791883790075737, -0.0005422126480011984, 0.0002575558599468432, -0.0008932098245320994, 0.0004954886277063175, -0.00046558272209510835, -0.00019170563612938611, -0.0006975636539869375, 0.0002545811150625327, -0.0006165074114939321, 0.0009283189887450126, 0.0004190900549400979, 0.00015203200041455906, 0.0001071539217497431, -0.0003297055823355091, -5.648679063578027e-05, 0.0014131781153754995, 0.0008932091973303683, 0.0007002725594949821, -2.7065403164386708e-05, -8.787715418186361e-06, 0.0002820051654867185, -0.00037100665205400167, 0.0004659059232196952, -0.00014279755944305832, 0.0004927962875572854, -0.0002799900811740092, -0.0004537293114375656, -0.0007600925604639488, -0.0002461310636449411, -0.0005684614418508283, 4.9291933151820754e-05, 0.0007614604645400223, 0.00039640262783211173, -0.0002667925236025593, -0.0001408236323252745, 0.0007114793123359371, -0.00012439373724530955, 0.0002881973436389611, 0.0006318383131976032, -0.0003563261947488999, 0.00043604292469228475, 0.0006161957088486468, -0.0002935874466685441, -0.0003302947644605737, -0.0006988485318080332, -0.0002951742179846694, -0.0001797750079541758, -0.0003627793732417556, 0.000963261293848456, -0.00016293380955799647, 0.0006789248483040902, -0.0002175954267269874, 1.5183115029452707e-05, -0.0006591725219985435, 0.0002860094769030021, 1.3076094705080952e-05, -0.0003063895991689443, 0.00011237726316281104, 0.0005729609291754661, -0.000174360866732002, -7.081182833898448e-05, 4.453650543497271e-05, 2.520830820188679e-05, -0.00020833119445814855, 0.0009153765705885944, 0.0004165074082864012, -0.0001703949793021357, 8.35729903778198e-05, -0.0004278151040098018, 0.0003631894275537771, -0.00023016852601297796, -0.0001347564248089615, -0.0007138548992568849, -0.00032307577958713257, -0.0004169962135722529, -0.001506585863431767, -0.0006655116933302243, -0.0004097555874005257, -0.00010353425112220725, 0.0001983930675781692, 0.00031429553624936417, 0.0007497958273018449, 1.531790562712466e-05, -7.59985659633783e-05, -0.00039315015350402534, 3.0006019768222402e-05, -0.00010055475711002035, 0.0004709760183916637, -0.00010938981916113529, 9.915954243873475e-05, -0.00039924424430735623, -0.00010511951302722073], [0.0010462438228970095, 0.00026088285597271874, 7.734616074942854e-06, 0.00013690217293646061, 5.719320413767327e-06, 0.0008075080306525637, -0.000439173554733423, 0.0003051100526602065, 0.000534260125021761, 0.0010546559394157063, 0.0002627475018650366, 0.0008227445650214083, 0.0001020509777587069, -0.0007783723048330533, -0.0002800455394165004, -0.0002556207438189541, 0.0002983802094887707, -0.0005677554201133149, -9.003613308706646e-05, 0.00046529079359399806, -0.00022261644673367208, 0.00014407196692406676, 0.00018412187966224258, 0.00016693184971594132, 8.933944232052704e-05, 6.0714139964854155e-06, 0.00036577573726638064, 8.015014375769917e-05, 4.21623875844411e-05, -0.00030137780244732183, -9.817445240824055e-05, -0.00014520702668207447, -0.00022901145888807136, -0.0003741998776589921, -0.0003223381161931634, -0.0007100819173622466, 0.0006681578011701805, 0.0002543935867351042, -0.000795662004916155, -4.425032721928843e-05, -3.085350189271558e-05, 0.0002990825928178411, 0.0008133019410245826, 0.00015522123866427583, 0.0007977453003256679, -0.0004142241749209935, -0.0003628875382706738, 0.0002172878157996033, -0.00046874466930004876, 0.0010399126774264837, 2.2756574683769644e-05, -7.270349249412722e-05, -0.0005135096010533743, -0.0006840316966594056, 1.0523721589032078e-05, 0.00016979507843265955, 0.00010747015775872359, 5.433899135184183e-05, 0.00040005214249343944, 8.97728836171541e-06, 8.141267256513914e-06, -0.001175458304489698, 9.346511992821737e-05, -0.00019458841127814646, -0.00012341313454742038, -0.000285531672014921, 0.00018157176921100276, 0.00044380599558583645, -0.00027943677856280997, 0.000263443916093586, -4.685928646542555e-05, -8.224637273308596e-05, -0.00010201822267711272, 5.91317863113429e-05, 0.00020738205493929545, 0.0007357692078629489, 0.0003273474917127529, -6.720261466437776e-05, 0.00020132567657528216, -0.00039748708082178316, -0.00046386286526952075, 0.0005875842500698451, -0.0006401639458669343, -4.874348908643673e-05, 6.511716963178673e-05, 0.00020995061921587484, -0.00032101863526374635, 3.8822599759313254e-05, -0.00017220457341677404, 0.00013857613563473465, -0.000136625382205293, 6.871446060271579e-05, 0.0008699624967127948, 0.00019053571531903857, -0.000842407710105947, 0.0003714120019286092, 0.001008331235854961, -2.6313142569557265e-05, -0.0003381174718430901, 